{
    "m_isCorrupted": false,
    "m_trainingData": {
        "m_updateType": 0,
        "m_learnRate": 1.0,
        "m_batchSize": 1,
        "m_curveRange": 0,
        "m_curve": {
            "serializedVersion": "2",
            "m_Curve": [
                {
                    "serializedVersion": "3",
                    "time": 0.0,
                    "value": 1.0,
                    "inSlope": 0.0,
                    "outSlope": 0.0,
                    "tangentMode": 0,
                    "weightedMode": 0,
                    "inWeight": 0.0,
                    "outWeight": 0.0
                },
                {
                    "serializedVersion": "3",
                    "time": 0.3051183521747589,
                    "value": 0.7851641178131104,
                    "inSlope": -1.2684203386306763,
                    "outSlope": -1.2684203386306763,
                    "tangentMode": 0,
                    "weightedMode": 0,
                    "inWeight": 0.3333333432674408,
                    "outWeight": 0.3333333432674408
                },
                {
                    "serializedVersion": "3",
                    "time": 1.0,
                    "value": 0.5,
                    "inSlope": 0.0,
                    "outSlope": 0.0,
                    "tangentMode": 0,
                    "weightedMode": 0,
                    "inWeight": 0.0,
                    "outWeight": 0.0
                }
            ],
            "m_PreInfinity": 2,
            "m_PostInfinity": 2,
            "m_RotationOrder": 4
        },
        "m_regularizationKeepRate": 0.8999999761581421,
        "m_trainNetworkOnline": true,
        "m_saveSamplesOnline": true,
        "m_trainingCooldownOnlineMin": 0.0,
        "m_trainingCooldownOnlineMax": 0.0,
        "m_trainNetworkOffline": true,
        "m_trainingUnits": 3,
        "m_trainingCooldownOfflineMin": 0.009999999776482582,
        "m_trainingCooldownOfflineMax": 0.009999999776482582,
        "m_trainingCooldownOfflineGatherMin": 100.0,
        "m_trainingCooldownOfflineGatherMax": 100.0,
        "m_stopAtMaximumUnitCount": 0,
        "m_trainingCooldownRdyOnline": 0.0,
        "m_trainingCooldownRdyOffline": 0.009999999776482582,
        "m_trainingCooldownRdyOfflineGather": 100.0,
        "m_trainingUnitssCompleted": 0
    },
    "m_sampleData": {
        "m_inputType": 0,
        "m_tossNoOutputSamples": true,
        "m_minSamples": 50,
        "m_maxSamples": 500,
        "m_batchSize": 1,
        "m_screenshotData": {
            "m_captureWidth": 0,
            "m_captureHeight": 0,
            "m_backgroundHeight": 0.0,
            "m_changeObstacleScales": true,
            "m_format": 1,
            "m_allowHDR": false,
            "m_activisionThreshold": 0.10000000149011612
        }
    },
    "m_visuilizationData": {
        "m_visualize": false,
        "m_height": 7.0,
        "m_width": 3.0,
        "m_marginX": 0.25,
        "m_marginY": 0.25,
        "m_orientation": 2,
        "m_nodesScaleFactorGlobal": 0.5,
        "m_weightsScaleFactorGloal": 0.5,
        "m_nodesScaleFactorLayerWise": [
            0.5
        ],
        "m_weightsScaleFactorLayerWise": [
            0.10000000149011612,
            0.25,
            0.25,
            0.25
        ],
        "m_relativePosition": {
            "x": 4.5,
            "y": 1.5,
            "z": 0.0
        },
        "m_relativeRotation": {
            "x": 0.0,
            "y": 0.0,
            "z": 0.0
        }
    },
    "m_networkData": {
        "m_biases": [
            {
                "data": [
                    -0.06950724124908447,
                    0.49391672015190127,
                    0.365488737821579,
                    -0.18741858005523683,
                    0.48995229601860049,
                    0.9961063861846924,
                    -0.373313307762146,
                    -0.5233163833618164
                ],
                "array": []
            },
            {
                "data": [
                    0.7784662246704102,
                    0.9666707515716553,
                    0.5808601379394531,
                    -0.41708528995513918,
                    -0.8750717639923096,
                    0.12118709087371826,
                    -0.05295860767364502,
                    0.0045119524002075199
                ],
                "array": []
            },
            {
                "data": [
                    0.22450792789459229,
                    -0.3444923162460327
                ],
                "array": []
            }
        ],
        "m_weights": [
            {
                "data": [],
                "array": [
                    {
                        "data": [
                            0.8928155899047852,
                            -0.1866077184677124,
                            0.09080684185028076,
                            -0.2792288064956665,
                            -0.5470564365386963,
                            -0.44871819019317629,
                            -0.4286726713180542,
                            -0.04026234149932861,
                            -0.17423880100250245,
                            -0.3534642457962036,
                            0.833341121673584,
                            -0.3853837251663208,
                            0.5752546787261963,
                            0.5729248523712158,
                            -0.8504869937896729,
                            -0.27860748767852785,
                            0.03636586666107178,
                            0.29988691210746767,
                            -0.253703236579895,
                            -0.22914659976959229,
                            0.6776206493377686,
                            -0.5471913814544678,
                            -0.6007468700408936,
                            -0.3269392251968384,
                            0.14632117748260499,
                            0.6387174129486084,
                            0.6864426136016846,
                            -0.724395751953125
                        ],
                        "array": []
                    },
                    {
                        "data": [
                            -0.706397294998169,
                            -0.09883296489715576,
                            -0.8486838340759277,
                            -0.21047985553741456,
                            0.9778099060058594,
                            -0.21547234058380128,
                            0.9410037994384766,
                            -0.4319039583206177,
                            0.08525454998016358,
                            -0.6982579231262207,
                            -0.43789350986480715,
                            0.23753035068511964,
                            -0.7998964786529541,
                            -0.08438289165496826,
                            -0.7591276168823242,
                            0.8142824172973633,
                            -0.5415604114532471,
                            -0.7432541847229004,
                            0.08435380458831787,
                            -0.4461888074874878,
                            -0.4749079942703247,
                            0.8626291751861572,
                            -0.721890926361084,
                            0.6115596294403076,
                            0.8448586463928223,
                            0.07790887355804444,
                            0.9159080982208252,
                            -0.39021360874176028
                        ],
                        "array": []
                    },
                    {
                        "data": [
                            -0.9181220531463623,
                            -0.5117008686065674,
                            -0.7316482067108154,
                            0.22423827648162843,
                            -0.09454405307769776,
                            0.3117787539958954,
                            -0.40077340602874758,
                            -0.7458450794219971,
                            -0.2825123071670532,
                            0.6721291542053223,
                            -0.6185722351074219,
                            -0.13221466541290284,
                            -0.4842318296432495,
                            -0.8579297065734863,
                            -0.09156382083892822,
                            0.03956496715545654,
                            -0.4075664281845093,
                            0.6113865375518799,
                            0.20557153224945069,
                            -0.9298591613769531,
                            0.3612527549266815,
                            0.7883937358856201,
                            0.5768754482269287,
                            -0.7034225463867188,
                            -0.6435623168945313,
                            -0.8804068565368652,
                            0.42644521594047549,
                            0.4907512366771698
                        ],
                        "array": []
                    },
                    {
                        "data": [
                            0.9652073383331299,
                            0.16581380367279054,
                            0.2320340871810913,
                            -0.18703162670135499,
                            0.47939226031303408,
                            0.8845572471618652,
                            0.39005133509635928,
                            0.03933680057525635,
                            -0.7358276844024658,
                            0.16803157329559327,
                            0.0006672143936157227,
                            -0.8812000751495361,
                            -0.5442850589752197,
                            -0.9447238445281982,
                            0.8901078701019287,
                            0.4208392798900604,
                            0.9445664882659912,
                            0.796950101852417,
                            0.01707136631011963,
                            0.8042902946472168,
                            0.4571499526500702,
                            0.2799393832683563,
                            -0.04589879512786865,
                            -0.6526904106140137,
                            0.6591377258300781,
                            0.2966255843639374,
                            0.41178271174430849,
                            -0.5282437801361084
                        ],
                        "array": []
                    },
                    {
                        "data": [
                            0.014853835105895996,
                            0.8878042697906494,
                            0.21328532695770265,
                            0.00037419795989990234,
                            -0.06582820415496826,
                            -0.6149899959564209,
                            -0.45672690868377688,
                            0.5490610599517822,
                            0.442667692899704,
                            0.582514762878418,
                            0.8497259616851807,
                            -0.45736634731292727,
                            0.09906375408172608,
                            0.1328974962234497,
                            0.6611757278442383,
                            0.12591207027435304,
                            0.3803214728832245,
                            0.36235591769218447,
                            -0.10869967937469483,
                            0.019468188285827638,
                            -0.8219890594482422,
                            0.10380756855010987,
                            0.1843787431716919,
                            -0.6335632801055908,
                            -0.31284844875335696,
                            -0.33604323863983157,
                            0.52951979637146,
                            -0.9686191082000732
                        ],
                        "array": []
                    },
                    {
                        "data": [
                            0.5837523937225342,
                            0.22290503978729249,
                            0.9293959140777588,
                            0.37178418040275576,
                            0.12678062915802003,
                            -0.653191328048706,
                            0.5732717514038086,
                            0.5566055774688721,
                            -0.2849372625350952,
                            -0.9129593372344971,
                            -0.8746626377105713,
                            0.14793455600738526,
                            -0.05884706974029541,
                            -0.9734725952148438,
                            -0.8246810436248779,
                            -0.9961895942687988,
                            0.7523469924926758,
                            -0.209283709526062,
                            0.34488412737846377,
                            -0.2932373285293579,
                            0.8166139125823975,
                            0.1155005693435669,
                            0.3140387237071991,
                            -0.41331803798675539,
                            -0.5767011642456055,
                            0.748769998550415,
                            -0.34715497493743899,
                            -0.09349954128265381
                        ],
                        "array": []
                    },
                    {
                        "data": [
                            0.6501526832580566,
                            -0.5533256530761719,
                            0.4149310290813446,
                            -0.385919451713562,
                            -0.3895667791366577,
                            0.6978273391723633,
                            -0.04975569248199463,
                            -0.9832973480224609,
                            0.3281843364238739,
                            -0.22519123554229737,
                            -0.2178565263748169,
                            -0.5654995441436768,
                            -0.1676121950149536,
                            -0.26567089557647707,
                            0.33856794238090517,
                            0.738455057144165,
                            -0.325433611869812,
                            0.6161582469940186,
                            -0.6400656700134277,
                            -0.6886165142059326,
                            0.39515420794487,
                            -0.005175232887268066,
                            0.6203057765960693,
                            0.07857835292816162,
                            0.08408653736114502,
                            0.5704092979431152,
                            -0.5878651142120361,
                            -0.2970777750015259
                        ],
                        "array": []
                    },
                    {
                        "data": [
                            -0.38075196743011477,
                            0.07695329189300537,
                            -0.48826563358306887,
                            0.6347074508666992,
                            0.3987548053264618,
                            0.7921276092529297,
                            -0.9086401462554932,
                            -0.9439783096313477,
                            0.8433220386505127,
                            0.0005551576614379883,
                            -0.0668562650680542,
                            -0.8366029262542725,
                            -0.7289173603057861,
                            0.1491163969039917,
                            -0.9635827541351318,
                            -0.8786559104919434,
                            -0.8434698581695557,
                            0.4125971496105194,
                            0.36458703875541689,
                            0.27307698130607607,
                            0.624046802520752,
                            0.37605878710746767,
                            -0.04539358615875244,
                            -0.1596297025680542,
                            0.8255751132965088,
                            -0.394342303276062,
                            0.6344525814056397,
                            0.5958397388458252
                        ],
                        "array": []
                    }
                ]
            },
            {
                "data": [],
                "array": [
                    {
                        "data": [
                            0.7655243873596191,
                            -0.7916004657745361,
                            -0.19338762760162354,
                            0.2367645502090454,
                            -0.444372296333313,
                            0.46477553248405459,
                            -0.434611439704895,
                            -0.8397672176361084
                        ],
                        "array": []
                    },
                    {
                        "data": [
                            -0.9739553928375244,
                            0.15092265605926515,
                            -0.7605369091033936,
                            -0.060835957527160647,
                            0.3717362582683563,
                            0.10587990283966065,
                            0.5231566429138184,
                            -0.5530209541320801
                        ],
                        "array": []
                    },
                    {
                        "data": [
                            0.5930306911468506,
                            0.8931217193603516,
                            -0.4410759210586548,
                            0.780303955078125,
                            -0.7425413131713867,
                            -0.9564003944396973,
                            -0.7213923931121826,
                            0.9642772674560547
                        ],
                        "array": []
                    },
                    {
                        "data": [
                            -0.8247754573822022,
                            0.32919594645500185,
                            0.6927375793457031,
                            0.31337282061576846,
                            -0.5693516731262207,
                            0.21888554096221925,
                            0.11627304553985596,
                            -0.6222779750823975
                        ],
                        "array": []
                    },
                    {
                        "data": [
                            -0.8720827102661133,
                            -0.9810523986816406,
                            -0.6226382255554199,
                            -0.2307978868484497,
                            0.5643258094787598,
                            0.6808865070343018,
                            0.5872561931610107,
                            -0.030538439750671388
                        ],
                        "array": []
                    },
                    {
                        "data": [
                            -0.9709768295288086,
                            -0.9683523178100586,
                            0.7127029895782471,
                            0.1585935354232788,
                            -0.5999212265014648,
                            0.15731489658355714,
                            0.9912674427032471,
                            0.00927722454071045
                        ],
                        "array": []
                    },
                    {
                        "data": [
                            0.42938587069511416,
                            -0.1527172327041626,
                            0.849036455154419,
                            -0.8619029521942139,
                            -0.9874138832092285,
                            -0.1860882043838501,
                            -0.9846510887145996,
                            -0.011766791343688965
                        ],
                        "array": []
                    },
                    {
                        "data": [
                            -0.9029126167297363,
                            -0.37235844135284426,
                            -0.9726133346557617,
                            0.12578833103179933,
                            0.8201324939727783,
                            0.40683791041374209,
                            -0.008603692054748536,
                            -0.24981701374053956
                        ],
                        "array": []
                    }
                ]
            },
            {
                "data": [],
                "array": [
                    {
                        "data": [
                            0.5013275146484375,
                            -0.6789045333862305,
                            -0.5935509204864502,
                            0.23881971836090089,
                            -0.0566180944442749,
                            -0.13856732845306397,
                            -0.691723108291626,
                            0.6093370914459229
                        ],
                        "array": []
                    },
                    {
                        "data": [
                            -0.9397876262664795,
                            0.02160012722015381,
                            0.9449253082275391,
                            0.23604977130889893,
                            0.06515729427337647,
                            -0.07505929470062256,
                            -0.3147629499435425,
                            -0.31585562229156496
                        ],
                        "array": []
                    }
                ]
            }
        ]
    },
    "m_layerLengths": [
        28,
        8,
        8,
        2
    ],
    "m_dataFileName": "NN_1",
    "m_activisionType": 2,
    "m_activisionTypeOutput": 4,
    "m_costType": 0,
    "m_initializationType": 1,
    "m_activisionConstant": 0.009999999776482582
}
