{
    "m_isCorrupted": false,
    "m_trainingData": {
        "m_updateType": 0,
        "m_learnRate": 1.0,
        "m_batchSize": 1,
        "m_curveRange": 0,
        "m_curve": {
            "serializedVersion": "2",
            "m_Curve": [
                {
                    "serializedVersion": "3",
                    "time": 0.0,
                    "value": 1.0,
                    "inSlope": 0.0,
                    "outSlope": 0.0,
                    "tangentMode": 0,
                    "weightedMode": 0,
                    "inWeight": 0.0,
                    "outWeight": 0.0
                },
                {
                    "serializedVersion": "3",
                    "time": 0.3051183521747589,
                    "value": 0.7851641178131104,
                    "inSlope": -1.2684203386306763,
                    "outSlope": -1.2684203386306763,
                    "tangentMode": 0,
                    "weightedMode": 0,
                    "inWeight": 0.3333333432674408,
                    "outWeight": 0.3333333432674408
                },
                {
                    "serializedVersion": "3",
                    "time": 1.0,
                    "value": 0.5,
                    "inSlope": 0.0,
                    "outSlope": 0.0,
                    "tangentMode": 0,
                    "weightedMode": 0,
                    "inWeight": 0.0,
                    "outWeight": 0.0
                }
            ],
            "m_PreInfinity": 2,
            "m_PostInfinity": 2,
            "m_RotationOrder": 4
        },
        "m_regularizationKeepRate": 0.8999999761581421,
        "m_trainNetworkOnline": true,
        "m_saveSamplesOnline": true,
        "m_trainingCooldownOnlineMin": 0.0,
        "m_trainingCooldownOnlineMax": 0.0,
        "m_trainNetworkOffline": true,
        "m_trainingUnits": 3,
        "m_trainingCooldownOfflineMin": 0.009999999776482582,
        "m_trainingCooldownOfflineMax": 0.009999999776482582,
        "m_trainingCooldownOfflineGatherMin": 100.0,
        "m_trainingCooldownOfflineGatherMax": 100.0,
        "m_stopAtMaximumUnitCount": 0,
        "m_trainingCooldownRdyOnline": 0.0,
        "m_trainingCooldownRdyOffline": 0.009999999776482582,
        "m_trainingCooldownRdyOfflineGather": 100.0,
        "m_trainingUnitssCompleted": 0
    },
    "m_sampleData": {
        "m_inputType": 0,
        "m_tossNoOutputSamples": true,
        "m_minSamples": 50,
        "m_maxSamples": 500,
        "m_batchSize": 1,
        "m_screenshotData": {
            "m_captureWidth": 0,
            "m_captureHeight": 0,
            "m_backgroundHeight": 0.0,
            "m_changeObstacleScales": true,
            "m_format": 1,
            "m_allowHDR": false,
            "m_activisionThreshold": 0.10000000149011612
        }
    },
    "m_visuilizationData": {
        "m_visualize": false,
        "m_height": 7.0,
        "m_width": 3.0,
        "m_marginX": 0.25,
        "m_marginY": 0.25,
        "m_orientation": 2,
        "m_nodesScaleFactorGlobal": 0.5,
        "m_weightsScaleFactorGloal": 0.5,
        "m_nodesScaleFactorLayerWise": [
            0.5
        ],
        "m_weightsScaleFactorLayerWise": [
            0.10000000149011612,
            0.25,
            0.25
        ],
        "m_relativePosition": {
            "x": 4.5,
            "y": 1.5,
            "z": 0.0
        },
        "m_relativeRotation": {
            "x": 0.0,
            "y": 0.0,
            "z": 0.0
        }
    },
    "m_networkData": {
        "m_biases": [
            {
                "data": [
                    0.7188065052032471,
                    -0.13643276691436768,
                    0.009791731834411621,
                    -0.39057767391204836,
                    0.09543836116790772,
                    0.5267806053161621,
                    -0.12157166004180908,
                    0.8466715812683106
                ],
                "array": []
            },
            {
                "data": [
                    -0.9621090888977051,
                    -0.21560609340667725
                ],
                "array": []
            }
        ],
        "m_weights": [
            {
                "data": [],
                "array": [
                    {
                        "data": [
                            0.9160292148590088,
                            0.4435984790325165,
                            0.43079873919487,
                            0.8063302040100098,
                            0.9299337863922119,
                            0.31244131922721865,
                            -0.27333390712738039,
                            0.9291906356811523,
                            0.5375022888183594,
                            -0.43768441677093508,
                            -0.15202462673187257,
                            -0.5672037601470947,
                            -0.36052072048187258,
                            0.6255567073822022,
                            0.6347532272338867,
                            0.9505856037139893,
                            0.4564771354198456,
                            -0.524444580078125,
                            0.7530806064605713,
                            0.954594612121582,
                            -0.08452260494232178,
                            -0.8112332820892334,
                            -0.226448655128479,
                            0.8927650451660156,
                            -0.5259900093078613,
                            -0.24233829975128175,
                            -0.10700547695159912,
                            0.4692208468914032
                        ],
                        "array": []
                    },
                    {
                        "data": [
                            -0.3746751546859741,
                            0.3835608661174774,
                            -0.8808341026306152,
                            -0.8206071853637695,
                            -0.7588927745819092,
                            -0.5657413005828857,
                            -0.6224453449249268,
                            0.07664310932159424,
                            -0.733738899230957,
                            0.9790036678314209,
                            -0.6938943862915039,
                            -0.10392987728118897,
                            -0.2512320280075073,
                            0.5769681930541992,
                            -0.6454212665557861,
                            -0.06722986698150635,
                            0.8462932109832764,
                            -0.678337812423706,
                            -0.28947198390960696,
                            -0.6892578601837158,
                            0.6511549949645996,
                            0.8742477893829346,
                            0.018544793128967286,
                            0.9896626472473145,
                            0.34088727831840517,
                            0.2530772387981415,
                            0.6106946468353272,
                            0.5327060222625732
                        ],
                        "array": []
                    },
                    {
                        "data": [
                            -0.9411296844482422,
                            -0.04801380634307861,
                            -0.08956992626190186,
                            0.20029103755950929,
                            0.8120813369750977,
                            -0.11898219585418701,
                            0.06666576862335205,
                            0.9889049530029297,
                            0.4937281310558319,
                            -0.3742305040359497,
                            -0.7237250804901123,
                            0.05430161952972412,
                            -0.17025792598724366,
                            0.978191614151001,
                            -0.8560211658477783,
                            0.877169132232666,
                            -0.2152010202407837,
                            0.7194364070892334,
                            -0.7643296718597412,
                            0.05562913417816162,
                            0.8280577659606934,
                            -0.9731385707855225,
                            -0.21377313137054444,
                            0.29875609278678896,
                            0.6054763793945313,
                            0.9060244560241699,
                            -0.6910862922668457,
                            -0.2278984785079956
                        ],
                        "array": []
                    },
                    {
                        "data": [
                            0.13529837131500245,
                            0.6743197441101074,
                            0.6903946399688721,
                            -0.4553755521774292,
                            0.2756809890270233,
                            -0.486667275428772,
                            0.6257901191711426,
                            -0.6849784851074219,
                            -0.9780559539794922,
                            0.028281331062316896,
                            0.5759103298187256,
                            0.8539173603057861,
                            0.2372671365737915,
                            0.10502994060516358,
                            0.2489999532699585,
                            0.5347027778625488,
                            0.7772045135498047,
                            -0.3608928918838501,
                            -0.11999285221099854,
                            -0.05066478252410889,
                            -0.09705865383148194,
                            -0.4576634168624878,
                            -0.4050091505050659,
                            -0.012676596641540528,
                            0.3103747069835663,
                            -0.6440885066986084,
                            0.27335473895072939,
                            0.18766963481903077
                        ],
                        "array": []
                    },
                    {
                        "data": [
                            -0.3354374170303345,
                            -0.118813157081604,
                            0.4466876685619354,
                            -0.7817826271057129,
                            -0.913318395614624,
                            0.45506832003593447,
                            -0.6115410327911377,
                            -0.9582009315490723,
                            0.6763622760772705,
                            0.18464457988739015,
                            -0.1329425573348999,
                            -0.29579412937164309,
                            -0.15111291408538819,
                            0.24923837184906007,
                            0.1355191469192505,
                            -0.5758605003356934,
                            -0.60595703125,
                            -0.35566461086273196,
                            -0.9310274124145508,
                            0.4880954921245575,
                            0.6758272647857666,
                            -0.33668220043182375,
                            -0.5353603363037109,
                            0.8206684589385986,
                            -0.8955428600311279,
                            -0.3429933786392212,
                            -0.6318390369415283,
                            -0.7431967258453369
                        ],
                        "array": []
                    },
                    {
                        "data": [
                            -0.02727687358856201,
                            0.392759770154953,
                            -0.1441417932510376,
                            -0.11808383464813233,
                            0.15343701839447022,
                            0.34241983294487,
                            0.9162652492523193,
                            0.7953758239746094,
                            0.07321321964263916,
                            -0.9379599094390869,
                            0.15866529941558839,
                            0.6310417652130127,
                            0.9030227661132813,
                            0.6445887088775635,
                            -0.7187426090240479,
                            -0.601740837097168,
                            0.6397583484649658,
                            -0.9641671180725098,
                            0.04916536808013916,
                            0.22700512409210206,
                            -0.8612358570098877,
                            -0.4400690793991089,
                            0.588186502456665,
                            -0.34707534313201907,
                            -0.9034738540649414,
                            -0.8568787574768066,
                            0.30492326617240908,
                            0.8125030994415283
                        ],
                        "array": []
                    },
                    {
                        "data": [
                            -0.7554159164428711,
                            -0.29757392406463625,
                            0.004070639610290527,
                            0.684227705001831,
                            0.17089354991912843,
                            -0.46934568881988528,
                            0.3106054961681366,
                            0.23529064655303956,
                            0.05496656894683838,
                            0.27467700839042666,
                            -0.2417987585067749,
                            0.7767527103424072,
                            -0.041805386543273929,
                            0.8646864891052246,
                            0.7690250873565674,
                            0.14592254161834718,
                            0.4347843825817108,
                            0.17178142070770265,
                            0.7365138530731201,
                            0.02793252468109131,
                            0.825481653213501,
                            0.6360189914703369,
                            0.9645566940307617,
                            -0.16687214374542237,
                            0.9186675548553467,
                            0.72654128074646,
                            0.432416170835495,
                            0.7643029689788818
                        ],
                        "array": []
                    },
                    {
                        "data": [
                            -0.4594939947128296,
                            -0.0037239789962768556,
                            -0.19578826427459718,
                            0.634645938873291,
                            0.7221076488494873,
                            -0.06641232967376709,
                            0.5483729839324951,
                            0.8641698360443115,
                            -0.982001781463623,
                            -0.1815880537033081,
                            -0.7961122989654541,
                            -0.028234124183654786,
                            -0.31792891025543215,
                            0.5170602798461914,
                            -0.46088707447052,
                            -0.6901473999023438,
                            -0.8202764987945557,
                            0.7624239921569824,
                            0.062137484550476077,
                            0.6889545917510986,
                            -0.19256937503814698,
                            -0.20084798336029054,
                            -0.9653429985046387,
                            -0.6832337379455566,
                            -0.3479675054550171,
                            0.7727127075195313,
                            -0.39223015308380129,
                            -0.9816544055938721
                        ],
                        "array": []
                    }
                ]
            },
            {
                "data": [],
                "array": [
                    {
                        "data": [
                            0.583791971206665,
                            -0.3502119779586792,
                            0.6320908069610596,
                            0.5884099006652832,
                            -0.1304095983505249,
                            -0.9109323024749756,
                            -0.44619596004486086,
                            0.6788761615753174
                        ],
                        "array": []
                    },
                    {
                        "data": [
                            0.2211664915084839,
                            0.06012618541717529,
                            -0.3799048662185669,
                            -0.07014310359954834,
                            -0.344570517539978,
                            -0.0013564825057983399,
                            -0.7486491203308106,
                            0.17999732494354249
                        ],
                        "array": []
                    }
                ]
            }
        ]
    },
    "m_layerLengths": [
        28,
        8,
        2
    ],
    "m_dataFileName": "NN_0",
    "m_activisionType": 2,
    "m_activisionTypeOutput": 4,
    "m_costType": 0,
    "m_initializationType": 1,
    "m_activisionConstant": 0.009999999776482582
}
