{
    "m_isCorrupted": false,
    "m_trainingData": {
        "m_updateType": 0,
        "m_learnRate": 0.20000000298023225,
        "m_batchSize": 10,
        "m_curveRange": 3000,
        "m_curve": {
            "serializedVersion": "2",
            "m_Curve": [
                {
                    "serializedVersion": "3",
                    "time": 0.0,
                    "value": 1.0,
                    "inSlope": -3.9293062686920168,
                    "outSlope": -3.9293062686920168,
                    "tangentMode": 0,
                    "weightedMode": 0,
                    "inWeight": 0.0,
                    "outWeight": 0.03218390792608261
                },
                {
                    "serializedVersion": "3",
                    "time": 0.16802266240119935,
                    "value": 0.29186224937438967,
                    "inSlope": -0.7418251633644104,
                    "outSlope": -0.7418251633644104,
                    "tangentMode": 0,
                    "weightedMode": 0,
                    "inWeight": 0.3333333432674408,
                    "outWeight": 0.11027639359235764
                },
                {
                    "serializedVersion": "3",
                    "time": 1.0,
                    "value": 0.10000000149011612,
                    "inSlope": 0.0,
                    "outSlope": 0.0,
                    "tangentMode": 0,
                    "weightedMode": 0,
                    "inWeight": 0.0,
                    "outWeight": 0.0
                }
            ],
            "m_PreInfinity": 2,
            "m_PostInfinity": 2,
            "m_RotationOrder": 4
        },
        "m_dropoutKeepRate": 0.5,
        "m_weightDecayRate": 0.0,
        "m_trainNetworkOnline": false,
        "m_saveSamplesOnline": false,
        "m_trainingCooldownOnlineMin": 0.05999999865889549,
        "m_trainingCooldownOnlineMax": 0.05999999865889549,
        "m_trainNetworkOffline": true,
        "m_trainingUnits": 10,
        "m_trainingCooldownOfflineMin": 0.009999999776482582,
        "m_trainingCooldownOfflineMax": 0.009999999776482582,
        "m_trainingCooldownOfflineGatherMin": -1.0,
        "m_trainingCooldownOfflineGatherMax": -1.0,
        "m_stopAtMaximumUnitCount": 0,
        "m_trainingCooldownRdyOnline": 0.06000000238418579,
        "m_trainingCooldownRdyOffline": 65.0002212524414,
        "m_trainingCooldownRdyOfflineGather": 3.4028234663852887e38,
        "m_trainingUnitsCompleted": 4531,
        "m_initSeed": -1,
        "m_currentSeed": 0
    },
    "m_sampleData": {
        "m_sampleDistributionStay": 0.0,
        "m_sampleDistributionPre": 1.0,
        "m_widthModifierSource": {
            "serializedVersion": "2",
            "m_Curve": [
                {
                    "serializedVersion": "3",
                    "time": 0.0,
                    "value": 1.0,
                    "inSlope": 0.0,
                    "outSlope": 0.0,
                    "tangentMode": 34,
                    "weightedMode": 0,
                    "inWeight": 0.0,
                    "outWeight": 0.0
                },
                {
                    "serializedVersion": "3",
                    "time": 1.0,
                    "value": 1.0,
                    "inSlope": 0.0,
                    "outSlope": 0.0,
                    "tangentMode": 34,
                    "weightedMode": 0,
                    "inWeight": 0.0,
                    "outWeight": 0.0
                }
            ],
            "m_PreInfinity": 2,
            "m_PostInfinity": 2,
            "m_RotationOrder": 4
        },
        "m_heightModifierSource": {
            "serializedVersion": "2",
            "m_Curve": [
                {
                    "serializedVersion": "3",
                    "time": 0.0,
                    "value": 1.0,
                    "inSlope": 0.0,
                    "outSlope": 0.0,
                    "tangentMode": 34,
                    "weightedMode": 0,
                    "inWeight": 0.0,
                    "outWeight": 0.0
                },
                {
                    "serializedVersion": "3",
                    "time": 1.0,
                    "value": 1.0,
                    "inSlope": 0.0,
                    "outSlope": 0.0,
                    "tangentMode": 34,
                    "weightedMode": 0,
                    "inWeight": 0.0,
                    "outWeight": 0.0
                }
            ],
            "m_PreInfinity": 2,
            "m_PostInfinity": 2,
            "m_RotationOrder": 4
        },
        "m_widthModifierThis": {
            "serializedVersion": "2",
            "m_Curve": [
                {
                    "serializedVersion": "3",
                    "time": 0.0,
                    "value": 1.0,
                    "inSlope": 0.0,
                    "outSlope": 0.0,
                    "tangentMode": 34,
                    "weightedMode": 0,
                    "inWeight": 0.0,
                    "outWeight": 0.0
                },
                {
                    "serializedVersion": "3",
                    "time": 1.0,
                    "value": 1.0,
                    "inSlope": 0.0,
                    "outSlope": 0.0,
                    "tangentMode": 34,
                    "weightedMode": 0,
                    "inWeight": 0.0,
                    "outWeight": 0.0
                }
            ],
            "m_PreInfinity": 2,
            "m_PostInfinity": 2,
            "m_RotationOrder": 4
        },
        "m_heightModifierThis": {
            "serializedVersion": "2",
            "m_Curve": [
                {
                    "serializedVersion": "3",
                    "time": 0.0,
                    "value": 1.0,
                    "inSlope": 0.0,
                    "outSlope": 0.0,
                    "tangentMode": 34,
                    "weightedMode": 0,
                    "inWeight": 0.0,
                    "outWeight": 0.0
                },
                {
                    "serializedVersion": "3",
                    "time": 1.0,
                    "value": 1.0,
                    "inSlope": 0.0,
                    "outSlope": 0.0,
                    "tangentMode": 34,
                    "weightedMode": 0,
                    "inWeight": 0.0,
                    "outWeight": 0.0
                }
            ],
            "m_PreInfinity": 2,
            "m_PostInfinity": 2,
            "m_RotationOrder": 4
        },
        "m_tossNoOutputSamples": false,
        "m_minSamplesNoStay": 0,
        "m_maxSamplesNoStay": 200,
        "m_maxSamplesStay": 0,
        "m_maxSamplesStayPercent": 1,
        "m_initSeed": 0.0,
        "m_currentSeed": 0.0,
        "m_batchSize": 0,
        "m_samples": [],
        "m_screenshotData": {
            "m_captureWidth": 0,
            "m_captureHeight": 0,
            "m_backgroundHeight": 0.0,
            "m_changeObstacleScales": true,
            "m_format": 1,
            "m_allowHDR": false,
            "m_activisionThreshold": 0.10000000149011612
        }
    },
    "m_visuilizationNetworkData": {
        "m_visualize": true,
        "m_height": 5.75,
        "m_width": 3.0,
        "m_marginX": 0.15000000596046449,
        "m_marginY": 0.10000000149011612,
        "m_fitHeight": 0.8999999761581421,
        "m_maxFitHeight": 0.75,
        "m_orientation": 2,
        "m_nodesScaleFactorGlobal": 0.5,
        "m_weightsScaleFactorGloal": 0.5,
        "m_nodesScaleFactorLayerWise": [],
        "m_weightsScaleFactorLayerWise": [
            0.30000001192092898,
            0.30000001192092898
        ],
        "m_relativePosition": {
            "x": 4.5,
            "y": 1.5,
            "z": 0.0
        },
        "m_relativeRotation": {
            "x": 0.0,
            "y": 0.0,
            "z": 0.0
        }
    },
    "m_networkData": {
        "m_biases": [
            {
                "dataFloat": [
                    -0.9858784675598145,
                    -0.5443004369735718,
                    -0.3415355384349823,
                    0.18646803498268128,
                    -0.20941941440105439,
                    -0.5584072470664978,
                    -0.8347842693328857,
                    0.3356468677520752,
                    0.21025247871875764,
                    0.09380552172660828,
                    -0.564379870891571,
                    0.16364619135856629,
                    0.057593878358602527,
                    0.27943792939186098,
                    -0.9215714931488037,
                    -0.6691884994506836,
                    -0.7511335015296936,
                    -0.6407996416091919,
                    0.18627183139324189,
                    1.0615622997283936,
                    0.226309671998024,
                    -0.3221351206302643,
                    0.6729792356491089,
                    0.2720964550971985,
                    0.4776291251182556,
                    0.21494346857070924,
                    -0.9320202469825745,
                    -0.4170486629009247,
                    0.3280773460865021,
                    0.9901066422462463,
                    0.9528661370277405,
                    0.062433868646621707,
                    0.3914337158203125,
                    -0.5276536345481873,
                    0.5769458413124085,
                    0.456668496131897,
                    0.22106392681598664,
                    0.024278482422232629,
                    -0.2792772352695465,
                    -0.5300123691558838,
                    0.7722129821777344,
                    -0.2637072205543518,
                    1.249867558479309,
                    -0.9798038005828857,
                    -0.9245750904083252,
                    -0.5061930418014526,
                    -0.40052294731140139,
                    0.17909152805805207,
                    0.7864007949829102,
                    0.21673816442489625,
                    -0.6859999299049377,
                    0.04483015090227127,
                    -0.27304989099502566,
                    0.2975050210952759,
                    -0.2935231626033783,
                    -0.7421329021453857,
                    -0.787458598613739,
                    0.1134759858250618,
                    -0.8571500778198242,
                    0.22911134362220765
                ],
                "dataBool": [],
                "array": []
            },
            {
                "dataFloat": [
                    -0.24590811133384705,
                    -0.948936939239502,
                    -2.343214988708496
                ],
                "dataBool": [],
                "array": []
            }
        ],
        "m_weights": [
            {
                "dataFloat": [],
                "dataBool": [],
                "array": [
                    {
                        "dataFloat": [
                            0.1153210699558258,
                            0.061860498040914538,
                            0.17822657525539399,
                            0.13776154816150666,
                            0.09895958006381989,
                            0.03967652469873428,
                            -0.09138419479131699,
                            -0.14898552000522614,
                            0.1508254110813141,
                            -0.07525304704904556,
                            0.09412290155887604,
                            -0.10406577587127686,
                            -0.14212945103645326,
                            -0.11761696636676789,
                            0.10811684280633927,
                            0.17553654313087464,
                            -0.016529036685824395,
                            0.09971808642148972,
                            0.07338666170835495,
                            -0.017231063917279245,
                            0.1408246010541916,
                            0.08700861036777497,
                            -0.0626148208975792,
                            0.1486663669347763,
                            0.06701426208019257,
                            -0.1406843066215515,
                            0.030243629589676858,
                            0.08932492136955261,
                            0.10208021104335785,
                            0.09500916302204132,
                            0.08383809030056,
                            0.017904147505760194,
                            -0.05992986261844635,
                            0.052454493939876559,
                            0.11145685613155365,
                            0.1516677588224411,
                            -0.08375414460897446,
                            -0.0721149891614914,
                            0.005080386996269226,
                            -0.16069091856479646,
                            0.1491652876138687,
                            -0.04491184651851654,
                            0.011785909533500672,
                            0.013145580887794495,
                            0.1572820097208023,
                            0.00861281156539917,
                            -0.06178593635559082,
                            0.044508859515190127,
                            0.010582029819488526,
                            0.10957187414169312,
                            0.08134022355079651,
                            -0.011416703462600708,
                            -0.07485811412334442,
                            -0.10318899899721146,
                            -0.0007217662641778588,
                            0.09050656855106354,
                            0.027726396918296815,
                            -0.16524638235569,
                            0.06503026187419892,
                            -0.15962859988212586
                        ],
                        "dataBool": [],
                        "array": []
                    },
                    {
                        "dataFloat": [
                            -0.08747856318950653,
                            0.050878431648015979,
                            -0.03044945001602173,
                            0.178365558385849,
                            -0.024516889825463296,
                            -0.04789263755083084,
                            0.17078518867492677,
                            -0.02743958868086338,
                            -0.15917910635471345,
                            0.1734229475259781,
                            -0.1124366819858551,
                            -0.10024196654558182,
                            -0.17129679024219514,
                            0.02041194960474968,
                            0.11566358059644699,
                            -0.1691235452890396,
                            -0.14756231009960175,
                            0.06301663815975189,
                            0.14343023300170899,
                            -0.07745839655399323,
                            0.14981015026569367,
                            -0.030184194445610048,
                            -0.06762570142745972,
                            0.05409536138176918,
                            0.043732501566410068,
                            0.1464124321937561,
                            0.0757235661149025,
                            0.07935867458581925,
                            0.1729048788547516,
                            0.07550571858882904,
                            -0.03552353382110596,
                            -0.17344526946544648,
                            0.15746895968914033,
                            0.039302825927734378,
                            -0.09891240298748017,
                            0.1772424429655075,
                            -0.05186304450035095,
                            -0.0783788412809372,
                            0.049745768308639529,
                            -0.03173285722732544,
                            -0.08019055426120758,
                            -0.021082326769828798,
                            -0.0009572654962539673,
                            0.1076984703540802,
                            -0.020325705409049989,
                            0.06497302651405335,
                            0.094943106174469,
                            0.11010223627090454,
                            0.04114893078804016,
                            -0.16659684479236604,
                            0.1194232851266861,
                            0.06985794007778168,
                            0.04408906400203705,
                            0.042600587010383609,
                            -0.07287708669900894,
                            0.11030588299036026,
                            0.15421360731124879,
                            0.14528995752334596,
                            -0.017637552693486215,
                            -0.07036827504634857
                        ],
                        "dataBool": [],
                        "array": []
                    },
                    {
                        "dataFloat": [
                            -0.09823984652757645,
                            -0.0369257889688015,
                            -0.15814034640789033,
                            -0.10964103043079376,
                            -0.029682781547307969,
                            -0.09438592940568924,
                            -0.007578790653496981,
                            0.13385039567947389,
                            0.07109011709690094,
                            0.042893365025520328,
                            0.06092649698257446,
                            0.06973547488451004,
                            -0.07779354602098465,
                            0.04554815590381622,
                            0.007689376827329397,
                            0.0437537245452404,
                            -0.017259569838643075,
                            -0.10442084819078446,
                            0.10063280165195465,
                            0.01355524081736803,
                            -0.17885859310626985,
                            -0.02638562209904194,
                            -0.1285199075937271,
                            -0.036594655364751819,
                            -0.052000515162944797,
                            -0.044048503041267398,
                            0.0033091872464865448,
                            -0.011598620563745499,
                            0.05087769404053688,
                            -0.0687202736735344,
                            -0.14246420562267304,
                            0.11259827762842179,
                            -0.04133318364620209,
                            -0.14424215257167817,
                            -0.14129069447517396,
                            -0.005174621939659119,
                            -0.021712377667427064,
                            0.03391095995903015,
                            0.13475818932056428,
                            0.062240876257419589,
                            -0.10295237600803375,
                            -0.004965692758560181,
                            -0.16210944950580598,
                            0.027904167771339418,
                            -0.13664035499095918,
                            0.1283498853445053,
                            -0.05482912063598633,
                            0.10894592106342316,
                            -0.08953990042209625,
                            -0.12644623219966889,
                            -0.115859255194664,
                            0.15221352875232697,
                            -0.17745761573314668,
                            0.13549035787582398,
                            0.0287675429135561,
                            0.054039329290390018,
                            -0.0658123791217804,
                            0.18353326618671418,
                            -0.1384507417678833,
                            0.07524622976779938
                        ],
                        "dataBool": [],
                        "array": []
                    },
                    {
                        "dataFloat": [
                            -0.02439100481569767,
                            -0.04365938901901245,
                            0.8118224740028381,
                            -0.66484135389328,
                            0.0751592293381691,
                            -0.20405493676662446,
                            0.256377637386322,
                            -0.026316620409488679,
                            0.8075694441795349,
                            -0.7557356357574463,
                            0.0643175020813942,
                            -0.3079480528831482,
                            0.3993830680847168,
                            0.025836952030658723,
                            0.9394519329071045,
                            -0.7563745975494385,
                            0.03554198145866394,
                            -0.44093072414398196,
                            0.6363463997840881,
                            0.07744740694761276,
                            0.8054990172386169,
                            -0.7771634459495544,
                            0.03617125377058983,
                            -0.36386266350746157,
                            0.6811484694480896,
                            0.19205144047737122,
                            0.842594563961029,
                            -0.6667081117630005,
                            -0.04389973357319832,
                            -0.4430118203163147,
                            0.13635779917240144,
                            -0.09512855112552643,
                            0.10136908292770386,
                            -0.01383604109287262,
                            0.15216921269893647,
                            0.03533332049846649,
                            0.036124855279922488,
                            -0.06143052503466606,
                            -0.008442044258117676,
                            0.12013978511095047,
                            0.016673490405082704,
                            -0.0871315747499466,
                            0.0735197439789772,
                            0.16390366852283479,
                            -0.142269566655159,
                            -0.06401041150093079,
                            -0.05091598629951477,
                            -0.06935002654790878,
                            -0.04514782130718231,
                            0.1065632775425911,
                            -0.043566539883613589,
                            0.018349841237068178,
                            0.09811380505561829,
                            -0.13712522387504579,
                            -0.0488395132124424,
                            -0.8499037027359009,
                            0.4301719069480896,
                            0.6730542182922363,
                            -0.3019885718822479,
                            0.5855369567871094
                        ],
                        "dataBool": [],
                        "array": []
                    },
                    {
                        "dataFloat": [
                            -0.0910278782248497,
                            0.008295654319226742,
                            -0.17228136956691743,
                            -0.10886336117982865,
                            -0.16825063526630402,
                            -0.15448082983493806,
                            -0.007690420839935541,
                            0.11937388777732849,
                            0.0498097762465477,
                            0.15780968964099885,
                            -0.08934412151575089,
                            0.020464137196540834,
                            -0.1534370332956314,
                            -0.11222176253795624,
                            -0.008271305821835995,
                            -0.12282241135835648,
                            0.04828093945980072,
                            0.15960770845413209,
                            0.15706251561641694,
                            0.04567037895321846,
                            -0.1342027336359024,
                            -0.016296910122036935,
                            0.03998636081814766,
                            0.022940361872315408,
                            0.07383798062801361,
                            0.15822958946228028,
                            -0.18126580119132996,
                            -0.009768737480044365,
                            0.04882952198386192,
                            0.15341921150684358,
                            0.059169333428144458,
                            0.06640435010194779,
                            -0.09169910848140717,
                            -0.17862020432949067,
                            -0.13792245090007783,
                            -0.16274644434452058,
                            0.15626390278339387,
                            0.14411115646362306,
                            -0.10297491401433945,
                            0.16572408378124238,
                            0.138625368475914,
                            0.07458411157131195,
                            -0.11332212388515473,
                            0.0444631427526474,
                            0.14270298182964326,
                            -0.08451102674007416,
                            0.09066084027290344,
                            0.08479277789592743,
                            -0.17270676791667939,
                            -0.1022939532995224,
                            0.17381884157657624,
                            -0.16136647760868073,
                            -0.06058253347873688,
                            0.06516759842634201,
                            -0.09636063873767853,
                            -0.11930640041828156,
                            -0.01552235335111618,
                            -0.13141317665576936,
                            0.07477618008852005,
                            -0.04874614253640175
                        ],
                        "dataBool": [],
                        "array": []
                    },
                    {
                        "dataFloat": [
                            0.013691539876163006,
                            0.1665719896554947,
                            -0.06074831262230873,
                            0.1698341816663742,
                            -0.112679623067379,
                            0.027972592040896417,
                            0.03251797333359718,
                            0.14011791348457337,
                            0.17449888586997987,
                            0.07534209638834,
                            0.1775370091199875,
                            -0.05126873031258583,
                            -0.072761170566082,
                            -0.03883260861039162,
                            -0.08809036761522293,
                            0.1478758603334427,
                            -0.1363305151462555,
                            0.11969570815563202,
                            0.06922149658203125,
                            -0.18326282501220704,
                            0.00662708654999733,
                            0.07335803657770157,
                            0.15249837934970857,
                            0.07548065483570099,
                            -0.1404239982366562,
                            0.1549348682165146,
                            0.04538103565573692,
                            0.1266644150018692,
                            -0.13091689348220826,
                            0.05970428138971329,
                            0.12615929543972016,
                            -0.11411101371049881,
                            0.09358403831720352,
                            -0.13528181612491609,
                            0.16706882417201997,
                            -0.07164953649044037,
                            0.08377967774868012,
                            -0.000023916363716125488,
                            -0.041078463196754459,
                            -0.08170472085475922,
                            -0.10008423030376435,
                            -0.0755491703748703,
                            -0.037997856736183169,
                            -0.12191250175237656,
                            0.12294039875268936,
                            0.16381756961345673,
                            0.1739024966955185,
                            0.06591499596834183,
                            -0.09265460073947907,
                            0.09427062422037125,
                            -0.01901187002658844,
                            0.004999071359634399,
                            -0.08631091564893723,
                            0.0855584517121315,
                            0.012693730182945729,
                            -0.0074639408849179749,
                            -0.16362477838993073,
                            0.16790840029716493,
                            0.0828482061624527,
                            -0.16051414608955384
                        ],
                        "dataBool": [],
                        "array": []
                    },
                    {
                        "dataFloat": [
                            0.051002129912376407,
                            -0.11821995675563812,
                            0.05581795424222946,
                            -0.054984696209430698,
                            -0.08079832792282105,
                            -0.10001517087221146,
                            0.02434971183538437,
                            -0.09100257605314255,
                            -0.1117551401257515,
                            0.11200564354658127,
                            0.06484103947877884,
                            0.08040790259838104,
                            0.12744612991809846,
                            -0.14406736195087434,
                            0.1599876433610916,
                            -0.027187325060367585,
                            -0.12770557403564454,
                            0.13302938640117646,
                            0.18849143385887147,
                            -0.03149445354938507,
                            0.010394148528575898,
                            0.11967868357896805,
                            -0.09375596791505814,
                            -0.009423541836440564,
                            -0.11116073280572891,
                            -0.17255240678787232,
                            0.09447527676820755,
                            0.05670367553830147,
                            -0.11903849989175797,
                            -0.10620567202568054,
                            0.0794605016708374,
                            0.0802745372056961,
                            0.033454909920692447,
                            -0.04259166121482849,
                            0.06361504644155503,
                            0.030872806906700136,
                            0.060679446905851367,
                            -0.05111747980117798,
                            -0.15247587859630586,
                            0.17653988301753999,
                            0.0605321004986763,
                            -0.12384776771068573,
                            -0.1725420206785202,
                            -0.17423062026500703,
                            0.11812426149845123,
                            0.15837319195270539,
                            -0.051257386803627017,
                            0.06130535155534744,
                            0.0015552341938018799,
                            0.10558770596981049,
                            0.03905126452445984,
                            0.14619719982147218,
                            0.1774497777223587,
                            0.04509618878364563,
                            0.0347188338637352,
                            0.16362406313419343,
                            0.10274172574281693,
                            0.07223750650882721,
                            0.15999387204647065,
                            0.07474379986524582
                        ],
                        "dataBool": [],
                        "array": []
                    },
                    {
                        "dataFloat": [
                            0.32196933031082156,
                            0.38922643661499026,
                            0.033936988562345508,
                            -0.11017242819070816,
                            -0.1053357943892479,
                            -0.5305758118629456,
                            0.36479097604751589,
                            0.4645523428916931,
                            -0.04439515620470047,
                            -0.14765644073486329,
                            -0.3135140836238861,
                            -0.3170822560787201,
                            0.5602450370788574,
                            0.30343103408813479,
                            -0.025003187358379365,
                            -0.1866496503353119,
                            -0.1920657753944397,
                            -0.3301045298576355,
                            0.7137237191200256,
                            0.40784868597984316,
                            -0.04640544578433037,
                            -0.21452696621418,
                            -0.3984631299972534,
                            -0.44765007495880129,
                            0.7324236035346985,
                            0.5499255657196045,
                            0.07083427160978317,
                            -0.143921360373497,
                            -0.2180369645357132,
                            -0.561416745185852,
                            -0.07080332934856415,
                            0.12079102545976639,
                            0.04907824844121933,
                            -0.018009915947914125,
                            -0.1575780063867569,
                            0.1453494280576706,
                            -0.11711199581623078,
                            0.18236513435840608,
                            -0.05654469132423401,
                            0.16917955875396729,
                            0.1458500176668167,
                            -0.15636615455150605,
                            0.1618322879076004,
                            0.07199691236019135,
                            0.06201844662427902,
                            0.10246039927005768,
                            -0.03775849938392639,
                            0.027195855975151063,
                            -0.060767143964767459,
                            -0.03703530132770538,
                            0.021913781762123109,
                            -0.13969887793064118,
                            -0.03826682269573212,
                            0.003986626863479614,
                            -0.23801709711551667,
                            -0.30570536851882937,
                            -0.2084571123123169,
                            -0.1000511422753334,
                            0.38851940631866457,
                            0.23910273611545564
                        ],
                        "dataBool": [],
                        "array": []
                    },
                    {
                        "dataFloat": [
                            -0.6254006624221802,
                            0.1478477120399475,
                            -0.9334474205970764,
                            0.9187076687812805,
                            -0.08368083834648133,
                            0.6977956295013428,
                            -0.5502883791923523,
                            0.22719576954841615,
                            -0.9455918073654175,
                            0.9444764256477356,
                            -0.06561940908432007,
                            0.7146280407905579,
                            -0.7206868529319763,
                            0.12833939492702485,
                            -1.1178158521652222,
                            1.106820821762085,
                            -0.0005257689044810832,
                            1.0395293235778809,
                            -0.9375492334365845,
                            -0.05079622194170952,
                            -1.3705960512161255,
                            1.1007556915283204,
                            0.12727518379688264,
                            1.1491461992263795,
                            -1.2195067405700684,
                            -0.11862016469240189,
                            -1.446924090385437,
                            1.1532917022705079,
                            0.04765942320227623,
                            1.4774101972579957,
                            0.18211327493190766,
                            -0.09725276380777359,
                            -0.07586981356143952,
                            0.05505339801311493,
                            0.10208600759506226,
                            0.12782862782478333,
                            -0.17253102362155915,
                            -0.08821789175271988,
                            0.11073397099971771,
                            -0.04387250542640686,
                            0.06329414993524552,
                            -0.07574363052845001,
                            0.0508275106549263,
                            0.1739978790283203,
                            0.017062723636627198,
                            -0.02866688370704651,
                            -0.13582344353199006,
                            0.09251190721988678,
                            0.07429935038089752,
                            -0.13288171589374543,
                            -0.04586905241012573,
                            0.12211883813142777,
                            0.055958107113838199,
                            -0.11014066636562348,
                            0.4185090959072113,
                            -0.5057028532028198,
                            0.28756290674209597,
                            0.5184850692749023,
                            -0.9796802401542664,
                            -0.1613299697637558
                        ],
                        "dataBool": [],
                        "array": []
                    },
                    {
                        "dataFloat": [
                            0.7915521860122681,
                            -0.051450636237859729,
                            1.3176965713500977,
                            -1.0028877258300782,
                            0.10702867805957794,
                            -0.6312633752822876,
                            0.6581340432167053,
                            -0.03961678966879845,
                            1.2953238487243653,
                            -1.0078837871551514,
                            -0.038709044456481937,
                            -0.6652078032493591,
                            0.810055136680603,
                            -0.043878085911273959,
                            1.4308624267578126,
                            -1.2139379978179932,
                            0.06597086042165756,
                            -0.8045831322669983,
                            0.9529455900192261,
                            -0.029460493475198747,
                            1.6762042045593262,
                            -1.4524868726730347,
                            0.02702462300658226,
                            -0.9430862069129944,
                            1.153710126876831,
                            -0.05551929399371147,
                            1.7679402828216553,
                            -1.7322250604629517,
                            -0.04243891313672066,
                            -1.333537220954895,
                            -0.008228108286857605,
                            -0.1266615241765976,
                            -0.13631223142147065,
                            -0.15542803704738618,
                            0.07174380123615265,
                            0.08466841280460358,
                            0.06507457792758942,
                            -0.17834354937076569,
                            -0.12824146449565888,
                            -0.011927202343940735,
                            0.1327892392873764,
                            -0.13820849359035493,
                            -0.11907000839710236,
                            -0.023109182715415956,
                            0.16161350905895234,
                            0.12540988624095918,
                            -0.16122998297214509,
                            0.1589614599943161,
                            0.16218625009059907,
                            -0.17861144244670869,
                            0.1541985422372818,
                            -0.12918399274349214,
                            0.0627770721912384,
                            0.028851836919784547,
                            -0.07420635223388672,
                            -1.2172783613204957,
                            0.6432240009307861,
                            0.5283682942390442,
                            -0.36330392956733706,
                            0.6074725985527039
                        ],
                        "dataBool": [],
                        "array": []
                    },
                    {
                        "dataFloat": [
                            -0.004516310058534145,
                            0.06297725439071655,
                            0.05759356915950775,
                            -0.14919036626815797,
                            0.1657068431377411,
                            -0.02234380692243576,
                            0.10153432935476303,
                            0.1183629035949707,
                            -0.1735514998435974,
                            -0.14578552544116975,
                            -0.11832281947135925,
                            -0.052462853491306308,
                            0.1489599347114563,
                            0.08481757342815399,
                            0.09049593657255173,
                            0.16447173058986665,
                            0.019392836838960649,
                            0.18418990075588227,
                            0.04366796463727951,
                            -0.09143070131540299,
                            -0.18159452080726624,
                            -0.07750525325536728,
                            0.11717115342617035,
                            -0.021590296179056169,
                            -0.18796002864837647,
                            0.09833225607872009,
                            -0.11664823442697525,
                            -0.17926926910877229,
                            0.01405349001288414,
                            -0.12267880886793137,
                            0.10343784838914871,
                            -0.013184234499931336,
                            -0.1656835526227951,
                            -0.09134821593761444,
                            -0.1357644945383072,
                            -0.11894656717777252,
                            0.061613794416189197,
                            -0.11245594918727875,
                            0.04427705705165863,
                            -0.0006618350744247437,
                            -0.04871128499507904,
                            0.15947245061397553,
                            0.034037843346595767,
                            -0.171494260430336,
                            -0.0914151519536972,
                            -0.08521915972232819,
                            0.07066680490970612,
                            -0.09179182350635529,
                            0.01582331955432892,
                            -0.1347970813512802,
                            -0.1655222326517105,
                            -0.18254421651363374,
                            -0.07235707342624664,
                            -0.05758368596434593,
                            0.054127682000398639,
                            0.030144918709993364,
                            0.17677602171897889,
                            0.07631825655698776,
                            0.0027013455983251335,
                            0.037628479301929477
                        ],
                        "dataBool": [],
                        "array": []
                    },
                    {
                        "dataFloat": [
                            0.28433293104171755,
                            0.16598494350910188,
                            -0.001771746901795268,
                            0.14057305455207826,
                            -0.0711454451084137,
                            -0.0041993954218924049,
                            0.01654515601694584,
                            0.18438193202018739,
                            0.11513304710388184,
                            0.030223706737160684,
                            -0.10368271172046662,
                            -0.22768273949623109,
                            -0.12011334300041199,
                            0.19612851738929749,
                            -0.030141307041049005,
                            -0.019344748929142953,
                            -0.11647547781467438,
                            -0.1685018390417099,
                            0.03738155588507652,
                            0.23035985231399537,
                            0.11008472740650177,
                            0.16672760248184205,
                            -0.1142766997218132,
                            -0.12315386533737183,
                            0.08136841654777527,
                            0.11021999269723892,
                            0.15978625416755677,
                            -0.044992245733737949,
                            -0.14802101254463197,
                            -0.22358475625514985,
                            -0.08500368893146515,
                            -0.1819351762533188,
                            -0.0928880125284195,
                            0.12220139801502228,
                            0.14620177447795869,
                            0.037154436111450198,
                            -0.15886886417865754,
                            -0.03443409502506256,
                            -0.029808342456817628,
                            0.018242403864860536,
                            0.027224451303482057,
                            0.06229781359434128,
                            0.14052583277225495,
                            0.15451961755752564,
                            -0.1465730369091034,
                            -0.07735516130924225,
                            0.05926632136106491,
                            -0.025659367442131044,
                            -0.027477622032165529,
                            0.1410202831029892,
                            0.14047451317310334,
                            0.14780451357364655,
                            0.16354788839817048,
                            0.16492198407649995,
                            -0.2975621521472931,
                            -0.14441093802452088,
                            -0.010928663425147534,
                            -0.10233141481876373,
                            0.03149348869919777,
                            0.00376793066971004
                        ],
                        "dataBool": [],
                        "array": []
                    },
                    {
                        "dataFloat": [
                            -0.003330361098051071,
                            -0.09489817172288895,
                            0.14225251972675324,
                            0.048206787556409839,
                            0.1891801357269287,
                            0.052302613854408267,
                            -0.036424439400434497,
                            -0.0926913246512413,
                            0.19622103869915009,
                            0.04792677238583565,
                            0.1903325766324997,
                            0.008231166750192643,
                            -0.16782747209072114,
                            -0.13977357745170594,
                            -0.17187868058681489,
                            0.06060798466205597,
                            0.2096840739250183,
                            0.25243183970451357,
                            -0.05517749860882759,
                            -0.2543485760688782,
                            0.009069440886378289,
                            0.052392248064279559,
                            0.1929411143064499,
                            0.009634953923523426,
                            -0.051949288696050647,
                            -0.04528248682618141,
                            -0.10744209587574005,
                            0.20442461967468263,
                            -0.12480590492486954,
                            0.17776048183441163,
                            0.10491709411144257,
                            -0.18211053311824799,
                            0.06265414506196976,
                            -0.0053237080574035648,
                            -0.0750567764043808,
                            -0.0394347608089447,
                            0.1261569708585739,
                            0.15756620466709138,
                            0.1735655814409256,
                            0.13102488219738007,
                            0.03722992539405823,
                            -0.1412956565618515,
                            0.06548936665058136,
                            -0.13479815423488618,
                            0.10219025611877442,
                            -0.16200105845928193,
                            -0.17501313984394074,
                            0.15128497779369355,
                            0.07661048322916031,
                            -0.010055407881736756,
                            -0.17588429152965547,
                            -0.09569311887025833,
                            -0.10601712763309479,
                            -0.16017435491085053,
                            -0.05151885375380516,
                            0.13829541206359864,
                            0.27667340636253359,
                            0.09610183537006378,
                            -0.09586585313081742,
                            -0.2060806155204773
                        ],
                        "dataBool": [],
                        "array": []
                    },
                    {
                        "dataFloat": [
                            0.5546241998672485,
                            0.34925898909568789,
                            -0.004727111663669348,
                            0.15045268833637238,
                            -0.367418110370636,
                            -0.5338650941848755,
                            0.42042025923728945,
                            0.28034767508506777,
                            0.044704221189022067,
                            0.2501657009124756,
                            -0.36213499307632449,
                            -0.5518523454666138,
                            0.5745588541030884,
                            0.14571699500083924,
                            0.13080883026123048,
                            0.34229767322540285,
                            -0.45277485251426699,
                            -0.6284536123275757,
                            0.5307305455207825,
                            0.2884356677532196,
                            0.17491468787193299,
                            0.32011327147483828,
                            -0.570049524307251,
                            -0.612296998500824,
                            0.5612516403198242,
                            0.38286128640174868,
                            0.12174184620380402,
                            0.2063118815422058,
                            -0.582929790019989,
                            -0.859778642654419,
                            -0.057961124926805499,
                            -0.019031330943107606,
                            -0.0811215490102768,
                            -0.16768334805965424,
                            0.10800722241401673,
                            -0.14651574194431306,
                            -0.14998798072338105,
                            -0.1687338650226593,
                            0.14558105170726777,
                            -0.061604246497154239,
                            -0.12723959982395173,
                            -0.08479736745357514,
                            -0.018915459513664247,
                            -0.17104913294315339,
                            -0.15814606845378877,
                            0.020959362387657167,
                            -0.07212717831134796,
                            -0.09403686970472336,
                            -0.054952219128608707,
                            -0.024175599217414857,
                            -0.12796787917613984,
                            0.08278147131204605,
                            -0.05770421400666237,
                            0.057983823120594028,
                            -0.3726407587528229,
                            -0.2666358947753906,
                            -0.01078780461102724,
                            -0.050664499402046207,
                            0.09862068295478821,
                            0.2701669931411743
                        ],
                        "dataBool": [],
                        "array": []
                    },
                    {
                        "dataFloat": [
                            0.09980133175849915,
                            0.1506074219942093,
                            -0.032638825476169589,
                            0.000295637350063771,
                            0.17815828323364259,
                            0.05284411087632179,
                            -0.027196956798434259,
                            0.007788415066897869,
                            -0.04638977721333504,
                            -0.016643580049276353,
                            -0.049499284476041797,
                            -0.0633341372013092,
                            -0.03473431617021561,
                            0.08538389205932617,
                            -0.044579047709703448,
                            0.12156456708908081,
                            0.1239485815167427,
                            0.03424568474292755,
                            0.0012915550032630563,
                            -0.15971112251281739,
                            0.03953943029046059,
                            0.1706816703081131,
                            -0.08132390677928925,
                            0.18138550221920014,
                            0.1022382453083992,
                            0.10529420524835587,
                            0.061362165957689288,
                            -0.06601644307374954,
                            -0.042292606085538867,
                            -0.07198461890220642,
                            0.06572673469781876,
                            -0.15109087526798249,
                            -0.019316792488098146,
                            -0.10826779901981354,
                            -0.054435402154922488,
                            -0.11109374463558197,
                            -0.101070836186409,
                            0.11414448171854019,
                            -0.12369854748249054,
                            -0.06170196831226349,
                            -0.040242359042167667,
                            0.17134203016757966,
                            -0.08311732113361359,
                            -0.15345223248004914,
                            -0.08744750916957855,
                            -0.04147392511367798,
                            -0.040299028158187869,
                            0.11459986865520477,
                            -0.13576503098011018,
                            0.09382975846529007,
                            -0.12808258831501008,
                            -0.12590865790843965,
                            -0.1362677365541458,
                            0.14529244601726533,
                            -0.035837169736623767,
                            0.013768060132861138,
                            0.03211196884512901,
                            -0.014024144038558007,
                            0.1183469146490097,
                            0.12280047684907913
                        ],
                        "dataBool": [],
                        "array": []
                    },
                    {
                        "dataFloat": [
                            -0.05686168372631073,
                            0.16827400028705598,
                            -0.01924906298518181,
                            0.10190368443727493,
                            0.10685347020626068,
                            -0.12418012320995331,
                            0.15651704370975495,
                            0.10261286795139313,
                            -0.1388799250125885,
                            0.15935952961444856,
                            0.03967966511845589,
                            -0.025023451074957849,
                            0.012141784653067589,
                            0.07793666422367096,
                            0.17175635695457459,
                            -0.11033421009778977,
                            -0.16829556226730348,
                            -0.05718834325671196,
                            0.15247078239917756,
                            -0.11612533032894135,
                            -0.015639904886484147,
                            0.08319778740406037,
                            0.17037922143936158,
                            0.19107957184314729,
                            0.018469588831067086,
                            -0.06266242265701294,
                            0.10358436405658722,
                            0.10967785120010376,
                            -0.10001734644174576,
                            0.03738037496805191,
                            -0.18040184676647187,
                            0.034040987491607669,
                            -0.09560130536556244,
                            -0.0580303817987442,
                            0.051252610981464389,
                            0.1448114514350891,
                            0.024556785821914674,
                            0.11856101453304291,
                            0.14939440786838532,
                            0.13208846747875215,
                            -0.10618919879198075,
                            -0.04584619402885437,
                            -0.1342395395040512,
                            -0.14660628139972688,
                            0.1805584877729416,
                            0.12540040910243989,
                            0.10697035491466522,
                            0.07844419032335282,
                            0.05122462660074234,
                            0.0373813658952713,
                            0.13491037487983704,
                            0.12823614478111268,
                            0.00368480384349823,
                            -0.02102796733379364,
                            0.041570670902729037,
                            0.043354347348213199,
                            -0.09762905538082123,
                            0.040276870131492618,
                            -0.06918004900217056,
                            0.013278045691549778
                        ],
                        "dataBool": [],
                        "array": []
                    },
                    {
                        "dataFloat": [
                            0.007578001357614994,
                            0.12042511999607086,
                            0.07702240347862244,
                            0.04813304543495178,
                            0.03563498705625534,
                            0.172915518283844,
                            -0.012956404127180577,
                            -0.14132872223854066,
                            0.08510730415582657,
                            -0.05265974625945091,
                            -0.09272690117359162,
                            -0.11140958219766617,
                            -0.1396491974592209,
                            0.15344499051570893,
                            0.00011565411114133894,
                            -0.11565203964710236,
                            0.06289985030889511,
                            -0.16868248581886292,
                            -0.15917828679084779,
                            -0.060337722301483157,
                            0.1376536637544632,
                            -0.01596284657716751,
                            -0.12205541878938675,
                            -0.11117301136255264,
                            -0.1695764660835266,
                            -0.04731582850217819,
                            0.04573821648955345,
                            -0.023620523512363435,
                            0.15380734205245973,
                            0.07760684192180634,
                            -0.13233523070812226,
                            -0.14247171580791474,
                            -0.03346617519855499,
                            0.16611190140247346,
                            0.010703951120376587,
                            -0.09641318023204804,
                            0.04176799952983856,
                            -0.11918602883815766,
                            -0.08485870063304901,
                            -0.10810194909572602,
                            -0.1512078493833542,
                            -0.12691809237003327,
                            -0.0615159273147583,
                            -0.1374896615743637,
                            0.1272173374891281,
                            0.14612863957881928,
                            0.13566820323467256,
                            -0.1396452933549881,
                            -0.07679659873247147,
                            0.17200519144535066,
                            -0.06287238001823425,
                            -0.13765858113765717,
                            -0.11893106997013092,
                            -0.17163754999637605,
                            0.05414895340800285,
                            -0.15909191966056825,
                            -0.12166383862495423,
                            0.08207687735557556,
                            0.15998688340187074,
                            -0.17150308191776277
                        ],
                        "dataBool": [],
                        "array": []
                    },
                    {
                        "dataFloat": [
                            -0.1103380024433136,
                            0.016779912635684015,
                            0.009773407131433487,
                            0.00877675972878933,
                            0.1453932523727417,
                            0.1198626160621643,
                            0.16634875535964967,
                            0.1716604083776474,
                            0.06184438243508339,
                            -0.05675029009580612,
                            0.1439378261566162,
                            -0.06751951575279236,
                            -0.025282064452767373,
                            -0.17167648673057557,
                            -0.12887020409107209,
                            0.04487980529665947,
                            0.03337334096431732,
                            -0.13781680166721345,
                            -0.06071972846984863,
                            0.11324182897806168,
                            0.01817968487739563,
                            -0.15694500505924226,
                            0.14630970358848573,
                            -0.1592942327260971,
                            -0.1344381868839264,
                            0.07290364801883698,
                            -0.021073108538985254,
                            0.0826323926448822,
                            -0.10176637768745423,
                            0.01438069622963667,
                            -0.039779990911483768,
                            0.1377066820859909,
                            0.0985666811466217,
                            0.05023094266653061,
                            0.11792106181383133,
                            0.023819699883461,
                            -0.06885897368192673,
                            0.11294782161712647,
                            0.04517354071140289,
                            0.042744189500808719,
                            -0.1294548660516739,
                            -0.10510348528623581,
                            -0.11091692745685578,
                            0.10960130393505097,
                            -0.1356544941663742,
                            0.014281481504440308,
                            0.05274762213230133,
                            -0.1632712334394455,
                            0.025770023465156556,
                            0.13438750803470612,
                            0.16080908477306367,
                            -0.014461904764175415,
                            0.11397857964038849,
                            0.07403503358364105,
                            0.035931944847106937,
                            0.12861378490924836,
                            0.17838715016841889,
                            -0.13014577329158784,
                            0.018898174166679384,
                            0.15379437804222108
                        ],
                        "dataBool": [],
                        "array": []
                    },
                    {
                        "dataFloat": [
                            0.5240576267242432,
                            0.4072229266166687,
                            -0.10783063620328903,
                            0.20188574492931367,
                            -0.342865914106369,
                            -0.5099968910217285,
                            0.018618563190102578,
                            0.4328605830669403,
                            -0.11451566964387894,
                            0.28733760118484499,
                            -0.46746063232421877,
                            -0.548032820224762,
                            0.12973849475383759,
                            0.48338520526885989,
                            0.007771207485347986,
                            0.2772444784641266,
                            -0.4081612527370453,
                            -0.6390877962112427,
                            0.5641966462135315,
                            0.5156758427619934,
                            -0.21153147518634797,
                            0.25195810198783877,
                            -0.5589392185211182,
                            -0.6999686360359192,
                            0.15565961599349976,
                            0.5013967752456665,
                            0.10954651236534119,
                            0.342332124710083,
                            -0.5708720088005066,
                            -0.9508059620857239,
                            0.1453559547662735,
                            0.06731336563825607,
                            0.15287168323993684,
                            0.10462788492441178,
                            0.15987691283226014,
                            0.10102076083421707,
                            -0.009728297591209412,
                            -0.11449454724788666,
                            -0.012205839157104493,
                            0.037434861063957217,
                            0.1654471904039383,
                            0.018238842487335206,
                            -0.12149988859891892,
                            0.10314354300498963,
                            -0.014013335108757019,
                            -0.01910462975502014,
                            -0.0070712268352508549,
                            0.17743898928165437,
                            0.02590470016002655,
                            0.0471852570772171,
                            0.16098825633525849,
                            -0.07708623260259628,
                            0.15348084270954133,
                            0.030010148882865907,
                            -0.5057251453399658,
                            -0.09786716103553772,
                            -0.335562139749527,
                            0.02540719322860241,
                            0.32019615173339846,
                            0.3573073148727417
                        ],
                        "dataBool": [],
                        "array": []
                    },
                    {
                        "dataFloat": [
                            -0.04710822179913521,
                            0.14407578110694886,
                            -0.10390601307153702,
                            -0.013587437570095063,
                            0.1253218799829483,
                            -0.0800839513540268,
                            0.04958457127213478,
                            0.1921028345823288,
                            0.06561723351478577,
                            0.1435708999633789,
                            0.13646481931209565,
                            0.009367887862026692,
                            0.2332189977169037,
                            -0.10299310088157654,
                            -0.023340126499533654,
                            0.005854728166013956,
                            -0.012850036844611168,
                            -0.07329804450273514,
                            -0.08483559638261795,
                            -0.054878681898117068,
                            0.14804913103580476,
                            0.08439722657203675,
                            -0.1418827772140503,
                            -0.2476322501897812,
                            0.11222150176763535,
                            0.21775542199611665,
                            0.050986409187316897,
                            0.11621619760990143,
                            -0.03873938322067261,
                            -0.16377104818820954,
                            0.027539297938346864,
                            0.10553520917892456,
                            -0.15463696420192719,
                            0.1710309237241745,
                            0.13669218122959138,
                            0.017945751547813417,
                            -0.15777288377285005,
                            -0.10862385481595993,
                            -0.04566273093223572,
                            0.009577155113220215,
                            0.06643842905759812,
                            0.17697404325008393,
                            0.042965441942214969,
                            -0.06912455707788468,
                            0.09645338356494904,
                            -0.1400773972272873,
                            -0.1765369325876236,
                            -0.1500125676393509,
                            0.13510137796401978,
                            -0.11589055508375168,
                            0.16179075837135316,
                            0.10217058658599854,
                            0.02877187728881836,
                            0.08591665327548981,
                            0.12281456589698792,
                            0.037045709788799289,
                            -0.07135564833879471,
                            -0.0980723649263382,
                            0.07882142066955567,
                            0.15191404521465302
                        ],
                        "dataBool": [],
                        "array": []
                    },
                    {
                        "dataFloat": [
                            0.2333088368177414,
                            0.04553747549653053,
                            0.007795609068125486,
                            -0.012209895066916943,
                            -0.0891248807311058,
                            -0.1472654640674591,
                            0.0659736692905426,
                            0.15637391805648805,
                            0.021443719044327737,
                            0.12100542336702347,
                            0.09336408227682114,
                            -0.010832224041223526,
                            0.06268870085477829,
                            -0.01549451518803835,
                            -0.13720963895320893,
                            0.0668228268623352,
                            -0.04151681438088417,
                            -0.0031520756892859937,
                            -0.07980027049779892,
                            0.13285744190216065,
                            0.14588530361652375,
                            0.12771207094192506,
                            -0.003125292481854558,
                            -0.04889453947544098,
                            -0.03514603152871132,
                            0.09075562655925751,
                            0.06173574551939964,
                            0.16848599910736085,
                            -0.012124979868531227,
                            -0.007723669055849314,
                            -0.040980264544487,
                            -0.028821110725402833,
                            -0.14951594173908235,
                            0.09995904564857483,
                            0.1093822568655014,
                            0.03462931513786316,
                            -0.09140707552433014,
                            -0.10725082457065582,
                            0.16060398519039155,
                            0.14830157160758973,
                            0.1264931559562683,
                            0.1822623461484909,
                            0.17535455524921418,
                            0.14482687413692475,
                            0.13575954735279084,
                            0.0576758049428463,
                            -0.1811031848192215,
                            0.08368630707263947,
                            -0.04651567339897156,
                            0.0641317367553711,
                            -0.06460270285606384,
                            0.09480385482311249,
                            0.013749644160270691,
                            -0.13419879972934724,
                            -0.1066611111164093,
                            -0.09769812971353531,
                            -0.05365528538823128,
                            -0.2024453580379486,
                            -0.021830109879374505,
                            -0.21116237342357636
                        ],
                        "dataBool": [],
                        "array": []
                    },
                    {
                        "dataFloat": [
                            0.06193000078201294,
                            -0.09125147759914398,
                            -0.06678366661071778,
                            0.04386227950453758,
                            0.0166560560464859,
                            0.16090381145477296,
                            0.020174115896224977,
                            0.015381583012640477,
                            -0.012132624164223671,
                            0.10532236844301224,
                            0.048496514558792117,
                            -0.025219472125172616,
                            0.1289512813091278,
                            0.14855603873729707,
                            -0.13390566408634187,
                            -0.006485531572252512,
                            -0.07557772099971771,
                            0.05627249926328659,
                            -0.1018810048699379,
                            0.08356301486492157,
                            0.09749307483434677,
                            -0.1642996370792389,
                            0.07951272279024124,
                            0.10650282353162766,
                            0.07934316992759705,
                            -0.07850425690412522,
                            -0.012639905326068402,
                            0.08926787227392197,
                            -0.09709159284830094,
                            0.01312178187072277,
                            0.014284223318099976,
                            -0.06419727206230164,
                            0.15001843869686128,
                            -0.1426113247871399,
                            0.001747414469718933,
                            -0.15477211773395539,
                            -0.18069522082805634,
                            0.02402433753013611,
                            0.023420020937919618,
                            0.0029102861881256105,
                            0.14851583540439607,
                            -0.17335738241672517,
                            -0.08549674600362778,
                            -0.045219987630844119,
                            -0.10792325437068939,
                            -0.014038145542144776,
                            -0.12848591804504395,
                            0.04222823679447174,
                            -0.08119142800569534,
                            0.10785800963640213,
                            0.1741623729467392,
                            0.018247365951538087,
                            0.15499387681484223,
                            0.07267667353153229,
                            -0.09601341933012009,
                            0.09870810061693192,
                            0.1740291565656662,
                            0.13613837957382203,
                            0.03965047001838684,
                            -0.09098239988088608
                        ],
                        "dataBool": [],
                        "array": []
                    },
                    {
                        "dataFloat": [
                            0.348768949508667,
                            0.24045854806900025,
                            0.18054364621639253,
                            -0.11326101422309876,
                            -0.15249304473400117,
                            -0.5035384893417358,
                            0.5929257273674011,
                            0.2094791978597641,
                            0.16619303822517396,
                            -0.2839283347129822,
                            -0.3437846601009369,
                            -0.2672913670539856,
                            0.3015424311161041,
                            0.535802960395813,
                            0.13093946874141694,
                            -0.19692619144916535,
                            -0.1736319661140442,
                            -0.44129788875579836,
                            0.7847293019294739,
                            0.3505043387413025,
                            -0.07420117408037186,
                            -0.03567279130220413,
                            -0.3315894901752472,
                            -0.6816779375076294,
                            0.8662737607955933,
                            0.5337637662887573,
                            0.013385395519435406,
                            -0.32391899824142458,
                            -0.5547483563423157,
                            -0.6667803525924683,
                            0.008748143911361695,
                            0.09376446902751923,
                            -0.025147467851638795,
                            -0.10424210131168366,
                            0.012190520763397217,
                            -0.03403732180595398,
                            -0.0037486106157302858,
                            0.0060415118932724,
                            -0.15969236195087434,
                            0.14145196974277497,
                            0.09165556728839874,
                            -0.06330184638500214,
                            -0.17876948416233064,
                            0.079716756939888,
                            0.12469296157360077,
                            0.060882117599248889,
                            0.08347884565591812,
                            0.16808383166790009,
                            -0.12281547486782074,
                            0.031814947724342349,
                            0.08960478007793427,
                            0.11140410602092743,
                            -0.08534060418605805,
                            0.0758933424949646,
                            -0.16030600666999818,
                            -0.16075651347637177,
                            0.09449243545532227,
                            0.0707082748413086,
                            -0.23361974954605103,
                            0.5123286843299866
                        ],
                        "dataBool": [],
                        "array": []
                    },
                    {
                        "dataFloat": [
                            -0.06384910643100739,
                            0.035963647067546847,
                            -0.5332556366920471,
                            0.04832247272133827,
                            0.23260226845741273,
                            0.4978187382221222,
                            -0.2605474889278412,
                            0.0711718425154686,
                            -0.5382226705551148,
                            -0.1854371577501297,
                            0.2700916826725006,
                            0.3364868760108948,
                            -0.3578072488307953,
                            0.004475152585655451,
                            -0.565184473991394,
                            -0.1633009910583496,
                            0.4176752269268036,
                            0.34741804003715517,
                            -0.15498049557209016,
                            0.024156682193279268,
                            -0.6357858180999756,
                            0.03423013910651207,
                            0.3456730842590332,
                            0.5423471331596375,
                            -0.27989086508750918,
                            -0.0848289430141449,
                            -0.6899910569190979,
                            -0.03974650427699089,
                            0.42336052656173708,
                            0.7214558124542236,
                            -0.022554919123649598,
                            0.05814322456717491,
                            0.13263145089149476,
                            -0.10420741140842438,
                            0.04688803851604462,
                            -0.1571550816297531,
                            -0.04120686650276184,
                            0.04514773190021515,
                            0.06836668401956558,
                            0.11249084770679474,
                            -0.017038434743881227,
                            -0.07100918143987656,
                            0.14734554290771485,
                            -0.05666626989841461,
                            -0.11050380021333695,
                            0.17561881244182588,
                            -0.012564033269882203,
                            -0.03924183547496796,
                            -0.11597763001918793,
                            -0.14584039151668549,
                            0.07613871246576309,
                            0.034477487206459048,
                            0.017033949494361879,
                            0.05451442301273346,
                            0.1354731023311615,
                            -0.3630218207836151,
                            0.2958868443965912,
                            0.23102019727230073,
                            -0.11687783896923065,
                            -0.21662162244319917
                        ],
                        "dataBool": [],
                        "array": []
                    },
                    {
                        "dataFloat": [
                            -0.6563311815261841,
                            -0.43734607100486758,
                            0.13616099953651429,
                            0.26442766189575198,
                            0.4581500291824341,
                            0.31946849822998049,
                            -0.372283011674881,
                            -0.4829436242580414,
                            0.02902154065668583,
                            0.18726320564746858,
                            0.11745753884315491,
                            0.5707515478134155,
                            -0.6187817454338074,
                            -0.4582979381084442,
                            -0.12560272216796876,
                            0.2750968635082245,
                            0.3336394131183624,
                            0.4579760432243347,
                            -0.5391638875007629,
                            -0.6228920221328735,
                            -0.024952560663223268,
                            0.12100865691900253,
                            0.25184115767478945,
                            0.7396588325500488,
                            -0.8993918895721436,
                            -0.6814891695976257,
                            -0.0835711881518364,
                            0.3410075604915619,
                            0.5706353783607483,
                            0.7055367231369019,
                            -0.15407432615756989,
                            -0.15426461398601533,
                            -0.02047562599182129,
                            -0.1280674785375595,
                            0.1252361238002777,
                            -0.1277635544538498,
                            0.14010204374790193,
                            0.04060451686382294,
                            -0.007557764649391174,
                            0.10100270062685013,
                            0.048933081328868869,
                            0.11814219504594803,
                            -0.16569100320339204,
                            0.040327489376068118,
                            -0.16701681911945344,
                            0.12193287909030914,
                            -0.16781504452228547,
                            -0.07170508801937103,
                            -0.18184112012386323,
                            -0.05134040117263794,
                            -0.038316577672958377,
                            0.09454916417598725,
                            0.020370930433273317,
                            -0.17768771946430207,
                            0.4324086010456085,
                            0.5400053262710571,
                            0.4478730857372284,
                            0.07852198928594589,
                            -0.3447672426700592,
                            -0.12154102325439453
                        ],
                        "dataBool": [],
                        "array": []
                    },
                    {
                        "dataFloat": [
                            0.9143674969673157,
                            0.6068920493125916,
                            0.11871618777513504,
                            -0.9098919630050659,
                            -0.11790546774864197,
                            -0.6578747630119324,
                            1.1882739067077637,
                            0.6125262379646301,
                            0.1129133552312851,
                            -0.932999849319458,
                            -0.14934563636779786,
                            -0.6876718401908875,
                            1.195233941078186,
                            0.7603752613067627,
                            0.1087525486946106,
                            -1.1013387441635132,
                            -0.050742898136377338,
                            -0.8073185086250305,
                            1.5058460235595704,
                            0.8941479325294495,
                            0.1834932416677475,
                            -1.2579894065856934,
                            -0.15080170333385468,
                            -1.0035345554351807,
                            1.8804683685302735,
                            1.2897437810897828,
                            0.35307419300079348,
                            -1.5283331871032715,
                            -0.1487288475036621,
                            -1.2516740560531617,
                            0.02536053955554962,
                            -0.13436512649059297,
                            -0.05601254105567932,
                            -0.06688907742500305,
                            -0.14637501537799836,
                            -0.12790989875793458,
                            0.08079470694065094,
                            -0.09667886793613434,
                            0.009841203689575196,
                            -0.14656077325344087,
                            -0.09000809490680695,
                            -0.046557337045669559,
                            -0.00982271134853363,
                            0.1143835037946701,
                            0.17227675020694734,
                            -0.1342802494764328,
                            -0.07954196631908417,
                            0.15861447155475617,
                            0.12346319109201431,
                            -0.08552391827106476,
                            -0.16790463030338288,
                            -0.03699791431427002,
                            0.14998479187488557,
                            -0.12154345959424973,
                            -0.6976798176765442,
                            -0.30804207921028139,
                            0.5077261924743652,
                            0.15731710195541383,
                            -0.48783549666404726,
                            0.45903831720352175
                        ],
                        "dataBool": [],
                        "array": []
                    },
                    {
                        "dataFloat": [
                            -0.06086046248674393,
                            -0.16776850819587708,
                            0.03112822212278843,
                            -0.16886408627033235,
                            -0.11559250950813294,
                            -0.13122037053108216,
                            0.1684141606092453,
                            -0.025205496698617936,
                            -0.06334839761257172,
                            0.11931668967008591,
                            0.10743092000484467,
                            -0.14590732753276826,
                            0.039617955684661868,
                            -0.12515218555927277,
                            -0.12390810251235962,
                            0.049323033541440967,
                            0.0031480875331908466,
                            0.15725181996822358,
                            -0.10754235833883286,
                            -0.05826825276017189,
                            0.13698074221611024,
                            -0.10970102995634079,
                            -0.06503704190254212,
                            -0.12405789643526077,
                            0.020595302805304529,
                            -0.14873485267162324,
                            -0.12650880217552186,
                            -0.1370413899421692,
                            0.13369175791740418,
                            -0.1798219531774521,
                            -0.17084480822086335,
                            -0.11151845753192902,
                            -0.07496241480112076,
                            -0.1539587527513504,
                            -0.1388767510652542,
                            0.06664149463176727,
                            -0.10357917845249176,
                            -0.06184835731983185,
                            0.10410431772470474,
                            0.07334479689598084,
                            -0.1699744313955307,
                            0.12092913687229157,
                            -0.13829202950000764,
                            0.13633547723293305,
                            -0.1613672524690628,
                            0.04003697633743286,
                            -0.035327792167663577,
                            0.0010504722595214844,
                            -0.14988480508327485,
                            0.1797240823507309,
                            0.12848252058029176,
                            0.016564011573791505,
                            -0.12101472169160843,
                            0.00914396345615387,
                            -0.12312602251768112,
                            -0.1532975286245346,
                            0.09366647899150849,
                            0.018535194918513299,
                            0.15574105083942414,
                            0.13339748978614808
                        ],
                        "dataBool": [],
                        "array": []
                    },
                    {
                        "dataFloat": [
                            -0.1474437564611435,
                            0.15634019672870637,
                            -0.1333094835281372,
                            -0.11281280219554901,
                            0.024577142670750619,
                            0.04303974285721779,
                            0.1293068677186966,
                            0.12075433135032654,
                            0.05125802755355835,
                            0.12106119841337204,
                            0.10082435607910156,
                            0.04775242507457733,
                            -0.015145670622587204,
                            -0.11665838211774826,
                            0.1274534910917282,
                            0.019590333104133607,
                            0.041335925459861758,
                            0.029813572764396669,
                            -0.024187235161662103,
                            0.0046379584819078449,
                            0.1702881008386612,
                            -0.04977845400571823,
                            -0.025531552731990815,
                            -0.12590725719928742,
                            -0.0919329822063446,
                            0.15236231684684754,
                            0.041282568126916888,
                            0.04838135465979576,
                            -0.03746495395898819,
                            0.06368475407361984,
                            0.0984223335981369,
                            -0.07568337768316269,
                            -0.10540439933538437,
                            0.0280313640832901,
                            -0.020464912056922914,
                            -0.031756266951560977,
                            0.020581915974617006,
                            -0.10912345349788666,
                            -0.047709763050079349,
                            0.14692923426628114,
                            -0.16937227547168733,
                            -0.09438110888004303,
                            0.06872300803661347,
                            -0.17147253453731538,
                            -0.09527240693569184,
                            0.10386121273040772,
                            0.06985868513584137,
                            0.06910824775695801,
                            0.007339462637901306,
                            0.05208759009838104,
                            0.11783595383167267,
                            0.05957410857081413,
                            -0.06799445301294327,
                            0.14290906488895417,
                            -0.08441581577062607,
                            0.11772776395082474,
                            0.052637554705142978,
                            0.11721915006637573,
                            -0.06314851343631745,
                            0.02365691028535366
                        ],
                        "dataBool": [],
                        "array": []
                    },
                    {
                        "dataFloat": [
                            0.18374019861221314,
                            0.036176860332489017,
                            -0.22760869562625886,
                            0.09727518260478974,
                            -0.05347515270113945,
                            0.025988446548581125,
                            -0.01819019392132759,
                            0.12320630997419357,
                            0.015795091167092325,
                            -0.041381366550922397,
                            -0.01988174021244049,
                            -0.07029545307159424,
                            -0.04193839803338051,
                            0.06029578298330307,
                            0.05144110694527626,
                            -0.002442851895466447,
