{
    "m_isCorrupted": false,
    "m_trainingData": {
        "m_updateType": 0,
        "m_learnRate": 0.20000000298023225,
        "m_batchSize": 10,
        "m_curveRange": 10000,
        "m_curve": {
            "serializedVersion": "2",
            "m_Curve": [
                {
                    "serializedVersion": "3",
                    "time": 0.0,
                    "value": 1.0,
                    "inSlope": 0.0,
                    "outSlope": 0.0,
                    "tangentMode": 0,
                    "weightedMode": 0,
                    "inWeight": 0.0,
                    "outWeight": 0.0
                },
                {
                    "serializedVersion": "3",
                    "time": 0.3051183521747589,
                    "value": 0.7851641178131104,
                    "inSlope": -1.2684203386306763,
                    "outSlope": -1.2684203386306763,
                    "tangentMode": 0,
                    "weightedMode": 0,
                    "inWeight": 0.3333333432674408,
                    "outWeight": 0.3333333432674408
                },
                {
                    "serializedVersion": "3",
                    "time": 1.0,
                    "value": 0.20000000298023225,
                    "inSlope": 0.0,
                    "outSlope": 0.0,
                    "tangentMode": 0,
                    "weightedMode": 0,
                    "inWeight": 0.0,
                    "outWeight": 0.0
                }
            ],
            "m_PreInfinity": 2,
            "m_PostInfinity": 2,
            "m_RotationOrder": 4
        },
        "m_regularizationKeepRate": 1.0,
        "m_weightDecayRate": 0.009999999776482582,
        "m_trainNetworkOnline": true,
        "m_saveSamplesOnline": true,
        "m_trainingCooldownOnlineMin": 0.0,
        "m_trainingCooldownOnlineMax": 0.0,
        "m_trainNetworkOffline": true,
        "m_trainingUnits": 20,
        "m_trainingCooldownOfflineMin": 0.019999999552965165,
        "m_trainingCooldownOfflineMax": 0.019999999552965165,
        "m_trainingCooldownOfflineGatherMin": 100.0,
        "m_trainingCooldownOfflineGatherMax": 100.0,
        "m_stopAtMaximumUnitCount": 0,
        "m_trainingCooldownRdyOnline": 0.0,
        "m_trainingCooldownRdyOffline": 0.019999999552965165,
        "m_trainingCooldownRdyOfflineGather": 100.0,
        "m_trainingUnitsCompleted": 0
    },
    "m_sampleData": {
        "m_inputType": 0,
        "m_tossNoOutputSamples": true,
        "m_minSamples": 300,
        "m_maxSamples": 1000,
        "m_batchSize": 1,
        "m_screenshotData": {
            "m_captureWidth": 0,
            "m_captureHeight": 0,
            "m_backgroundHeight": 0.0,
            "m_changeObstacleScales": true,
            "m_format": 1,
            "m_allowHDR": false,
            "m_activisionThreshold": 0.10000000149011612
        }
    },
    "m_visuilizationData": {
        "m_visualize": true,
        "m_height": 7.0,
        "m_width": 3.0,
        "m_marginX": 0.25,
        "m_marginY": 0.25,
        "m_orientation": 2,
        "m_nodesScaleFactorGlobal": 0.5,
        "m_weightsScaleFactorGloal": 0.5,
        "m_nodesScaleFactorLayerWise": [
            0.5,
            0.75
        ],
        "m_weightsScaleFactorLayerWise": [
            0.30000001192092898,
            0.5,
            0.5
        ],
        "m_relativePosition": {
            "x": 4.5,
            "y": 1.5,
            "z": 0.0
        },
        "m_relativeRotation": {
            "x": 0.0,
            "y": 0.0,
            "z": 0.0
        }
    },
    "m_networkData": {
        "m_biases": [
            {
                "data": [
                    0.12084710597991944,
                    0.4714450538158417,
                    -0.8049125671386719,
                    -0.7044312953948975,
                    0.3972308337688446,
                    0.9257941246032715,
                    -0.6832234859466553,
                    0.7376785278320313,
                    0.5801706314086914,
                    -0.4742380380630493,
                    0.04384458065032959,
                    -0.05822956562042236,
                    -0.655571699142456,
                    0.4766969382762909,
                    0.6753809452056885,
                    -0.3694571256637573
                ],
                "array": []
            },
            {
                "data": [
                    -0.38473212718963625,
                    -0.1761382818222046
                ],
                "array": []
            }
        ],
        "m_weights": [
            {
                "data": [],
                "array": [
                    {
                        "data": [
                            0.18040189146995545,
                            -0.16794142127037049,
                            -0.322317510843277,
                            -0.1476505696773529,
                            0.24186238646507264,
                            -0.1393875777721405,
                            -0.18313303589820863,
                            0.12083297222852707,
                            0.13946357369422913,
                            -0.0701112449169159,
                            0.07890662550926209,
                            0.11431588977575302,
                            -0.29948362708091738,
                            -0.32531240582466128,
                            -0.31486639380455019,
                            -0.06683981418609619,
                            -0.337819367647171,
                            -0.03812187910079956,
                            0.32800015807151797,
                            0.2905716001987457,
                            0.06124085187911987,
                            0.04899415373802185,
                            0.24934151768684388,
                            -0.3233540952205658,
                            -0.004703551530838013,
                            -0.05989965796470642,
                            0.28535598516464236,
                            0.21691633760929109
                        ],
                        "array": []
                    },
                    {
                        "data": [
                            0.08101218938827515,
                            0.3393355906009674,
                            0.3473187983036041,
                            0.31812676787376406,
                            0.08755546808242798,
                            -0.11238866299390793,
                            -0.276919960975647,
                            -0.197164386510849,
                            0.1392294019460678,
                            0.17074766755104066,
                            -0.1300593912601471,
                            -0.2074449360370636,
                            0.16628548502922059,
                            0.11727924644947052,
                            0.34653356671333315,
                            -0.2587030231952667,
                            0.3323480188846588,
                            0.05897223949432373,
                            -0.10912244766950607,
                            -0.0641106367111206,
                            0.03252992033958435,
                            -0.09212690591812134,
                            0.030237525701522828,
                            0.3032836616039276,
                            0.07131704688072205,
                            -0.3424122631549835,
                            -0.22631779313087464,
                            0.313367635011673
                        ],
                        "array": []
                    },
                    {
                        "data": [
                            0.2535412013530731,
                            0.10524462908506394,
                            -0.12126561999320984,
                            0.19942042231559754,
                            0.2602892220020294,
                            0.2687453329563141,
                            0.3290512263774872,
                            -0.1821419894695282,
                            0.16813093423843385,
                            -0.3128145635128021,
                            0.2094641625881195,
                            -0.0678093433380127,
                            -0.07876667380332947,
                            -0.17640456557273866,
                            0.28170445561408999,
                            -0.11041753739118576,
                            0.2012484073638916,
                            -0.004607290029525757,
                            -0.0314277708530426,
                            0.15925219655036927,
                            0.08221244812011719,
                            -0.2824358642101288,
                            0.06360983848571778,
                            0.25529372692108157,
                            0.17639264464378358,
                            0.1793607771396637,
                            0.01856774091720581,
                            -0.13637924194335938
                        ],
                        "array": []
                    },
                    {
                        "data": [
                            0.04434862732887268,
                            0.2144612818956375,
                            0.14207229018211366,
                            0.34893831610679629,
                            -0.06580248475074768,
                            0.3514200747013092,
                            0.021386951208114625,
                            -0.3327905833721161,
                            -0.26530835032463076,
                            0.30607351660728457,
                            -0.20311906933784486,
                            -0.08714616298675537,
                            -0.17175915837287904,
                            -0.23645833134651185,
                            -0.1824723184108734,
                            0.05067622661590576,
                            0.11644136160612107,
                            0.3278771936893463,
                            -0.22074124217033387,
                            -0.20980651676654817,
                            0.16833779215812684,
                            -0.18450042605400086,
                            -0.1824229508638382,
                            0.14987881481647492,
                            -0.14810499548912049,
                            0.18749335408210755,
                            0.22933407127857209,
                            -0.1667434275150299
                        ],
                        "array": []
                    },
                    {
                        "data": [
                            -0.30266866087913515,
                            0.04601934552192688,
                            -0.183650404214859,
                            0.034358829259872439,
                            0.08181321620941162,
                            -0.02017354965209961,
                            -0.17278608679771424,
                            -0.22175194323062898,
                            0.2061852365732193,
                            0.15961255133152009,
                            -0.21078339219093324,
                            0.3160400688648224,
                            0.27082517743110659,
                            0.2865566611289978,
                            0.14977428317070008,
                            0.09788587689399719,
                            0.30508992075920107,
                            0.304166704416275,
                            0.3055441677570343,
                            0.10243664681911469,
                            -0.25591209530830386,
                            0.2722693085670471,
                            -0.09576797485351563,
                            0.26040270924568179,
                            -0.09266620874404907,
                            0.06058007478713989,
                            0.04158708453178406,
                            -0.3196365535259247
                        ],
                        "array": []
                    },
                    {
                        "data": [
                            0.20127460360527039,
                            0.20051884651184083,
                            0.2805200517177582,
                            -0.04141995310783386,
                            0.21520736813545228,
                            0.1042717918753624,
                            0.2760995924472809,
                            -0.15916594862937928,
                            -0.0038330554962158205,
                            -0.1682223379611969,
                            -0.017010092735290529,
                            0.16690132021903993,
                            0.24487057328224183,
                            0.2419651448726654,
                            -0.18922308087348939,
                            -0.08238404989242554,
                            0.2511430084705353,
                            -0.06352454423904419,
                            -0.17091038823127747,
                            0.2978685200214386,
                            -0.07230296730995178,
                            -0.3154204189777374,
                            -0.32376810908317568,
                            -0.3330335319042206,
                            0.3033837378025055,
                            0.20868614315986634,
                            -0.09260383248329163,
                            0.2646919786930084
                        ],
                        "array": []
                    },
                    {
                        "data": [
                            -0.24519585072994233,
                            -0.14527499675750733,
                            -0.06970411539077759,
                            -0.16185395419597627,
                            0.030310869216918947,
                            -0.04994845390319824,
                            -0.12202629446983338,
                            -0.23650601506233216,
                            -0.22941263020038606,
                            0.34098783135414126,
                            -0.08652001619338989,
                            0.2477334439754486,
                            0.06652766466140747,
                            -0.14847680926322938,
                            -0.027746737003326417,
                            -0.16807863116264344,
                            0.323879212141037,
                            0.29804369807243349,
                            -0.11078184843063355,
                            0.0598682165145874,
                            0.30641987919807436,
                            0.2954113185405731,
                            0.19409295916557313,
                            0.2059895098209381,
                            0.3434775173664093,
                            0.25681060552597048,
                            -0.11197207123041153,
                            0.3299383223056793
                        ],
                        "array": []
                    },
                    {
                        "data": [
                            -0.19873079657554627,
                            0.08373266458511353,
                            0.33270445466041567,
                            0.2763667404651642,
                            -0.09273996949195862,
                            -0.24265144765377046,
                            0.045547544956207278,
                            -0.1455281376838684,
                            -0.34137633442878725,
                            0.1428041309118271,
                            -0.008958011865615845,
                            0.05569306015968323,
                            0.3396517336368561,
                            0.2915615141391754,
                            -0.049611419439315799,
                            -0.2480340301990509,
                            0.1138768121600151,
                            -0.09961503744125366,
                            0.2533819377422333,
                            -0.30439937114715578,
                            0.11942426860332489,
                            0.14705270528793336,
                            -0.2265407294034958,
                            0.26212605834007265,
                            -0.17902937531471253,
                            -0.3382819592952728,
                            0.20624449849128724,
                            -0.18503114581108094
                        ],
                        "array": []
                    },
                    {
                        "data": [
                            0.19502905011177064,
                            0.3265070617198944,
                            -0.226029172539711,
                            0.28929999470710757,
                            -0.0019125044345855713,
                            -0.2501007616519928,
                            0.2611500322818756,
                            0.01652589440345764,
                            0.2882113754749298,
                            0.2574349641799927,
                            0.17154718935489655,
                            0.03235551714897156,
                            0.16406477987766267,
                            0.017872989177703859,
                            -0.07294484972953797,
                            -0.2703789174556732,
                            -0.231275275349617,
                            -0.09560883045196533,
                            -0.24116714298725129,
                            0.26925697922706606,
                            0.3062269389629364,
                            -0.2802141010761261,
                            -0.32651153206825259,
                            0.3240351378917694,
                            -0.14605143666267396,
                            0.06654131412506104,
                            -0.16603019833564759,
                            0.061824649572372439
                        ],
                        "array": []
                    },
                    {
                        "data": [
                            0.2199031114578247,
                            -0.19369056820869447,
                            0.22742614150047303,
                            0.22548940777778626,
                            -0.12316957116127014,
                            0.11244954913854599,
                            0.2564961612224579,
                            0.06050747632980347,
                            0.15692585706710816,
                            0.008878856897354126,
                            -0.22167733311653138,
                            0.23855695128440858,
                            0.28951528668403628,
                            -0.24438300728797913,
                            0.3286091089248657,
                            -0.10817001014947891,
                            -0.12497926503419876,
                            0.09276773035526276,
                            0.3195822536945343,
                            0.07818016409873963,
                            -0.008993089199066162,
                            0.16080167889595033,
                            0.30685409903526308,
                            0.2586628496646881,
                            -0.2521383762359619,
                            0.11216042935848236,
                            0.26627376675605776,
                            -0.09964951872825623
                        ],
                        "array": []
                    },
                    {
                        "data": [
                            -0.2202359139919281,
                            -0.10977530479431153,
                            0.20403069257736207,
                            -0.24483397603034974,
                            -0.14943237602710725,
                            -0.19507433474063874,
                            0.31797149777412417,
                            -0.01864725351333618,
                            -0.15999379754066468,
                            0.06735247373580933,
                            0.18501436710357667,
                            -0.3518413007259369,
                            -0.2443811595439911,
                            -0.1696174293756485,
                            -0.19419929385185243,
                            0.33891019225120547,
                            -0.28088435530662539,
                            0.2414121776819229,
                            0.30851104855537417,
                            -0.2516117990016937,
                            -0.3035877048969269,
                            0.3507336676120758,
                            0.251607745885849,
                            -0.3432546555995941,
                            0.3350655138492584,
                            0.2810879349708557,
                            0.2579028904438019,
                            -0.2369994819164276
                        ],
                        "array": []
                    },
                    {
                        "data": [
                            -0.3100043833255768,
                            0.04087817668914795,
                            -0.1661648452281952,
                            0.02191784977912903,
                            -0.1222940981388092,
                            -0.21599289774894715,
                            0.2041374146938324,
                            -0.044643402099609378,
                            0.3163662254810333,
                            -0.2186608612537384,
                            0.06763526797294617,
                            -0.042575448751449588,
                            -0.2929379642009735,
                            0.18604595959186555,
                            0.32020601630210879,
                            -0.31604352593421938,
                            -0.0903780460357666,
                            -0.04499062895774841,
                            -0.2937488853931427,
                            0.05908957123756409,
                            0.018788278102874757,
                            0.013186365365982056,
                            -0.1542133390903473,
                            -0.1780351847410202,
                            0.3346438705921173,
                            0.11683957278728485,
                            0.23463991284370423,
                            0.10433121770620346
                        ],
                        "array": []
                    },
                    {
                        "data": [
                            -0.05149412155151367,
                            0.2389252483844757,
                            -0.01945754885673523,
                            0.003991931676864624,
                            -0.32632777094841006,
                            -0.15194281935691834,
                            0.08275783061981201,
                            -0.24502626061439515,
                            -0.18825742602348329,
                            0.21996816992759705,
                            -0.30004486441612246,
                            0.3129630386829376,
                            0.22018346190452577,
                            -0.13138753175735475,
                            0.28704825043678286,
                            0.15792128443717957,
                            -0.09675857424736023,
                            -0.08953133225440979,
                            -0.26897695660591128,
                            -0.2321648895740509,
                            0.28001952171325686,
                            -0.06986358761787415,
                            -0.22544315457344056,
                            -0.024249732494354249,
                            -0.11514648795127869,
                            -0.2504335343837738,
                            -0.12929493188858033,
                            0.08373749256134033
                        ],
                        "array": []
                    },
                    {
                        "data": [
                            0.3337571918964386,
                            0.30342915654182436,
                            -0.11177466064691544,
                            -0.26418641209602358,
                            0.07466688752174378,
                            -0.008897989988327027,
                            -0.3223400413990021,
                            -0.1451883316040039,
                            -0.28859731554985049,
                            -0.21389855444431306,
                            0.27890852093696597,
                            0.25930914282798769,
                            0.014849990606307984,
                            0.2939426600933075,
                            0.30799600481987,
                            0.22575503587722779,
                            -0.28780630230903628,
                            0.16431334614753724,
                            -0.16014517843723298,
                            -0.14451736211776734,
                            -0.16414742171764375,
                            -0.2892816364765167,
                            0.0014975965023040772,
                            -0.2073778212070465,
                            -0.02034449577331543,
                            -0.16487178206443788,
                            0.25216221809387209,
                            0.20815105736255647
                        ],
                        "array": []
                    },
                    {
                        "data": [
                            -0.24896183609962464,
                            -0.03224921226501465,
                            -0.24472078680992127,
                            -0.2912156879901886,
                            -0.32478925585746767,
                            0.2249564230442047,
                            0.13404728472232819,
                            0.312509685754776,
                            -0.09827166795730591,
                            -0.34982994198799136,
                            0.33000448346138,
                            0.15039071440696717,
                            0.07174956798553467,
                            0.054198771715164188,
                            0.103456512093544,
                            -0.22964385151863099,
                            0.020650476217269899,
                            0.0013137459754943848,
                            -0.13166865706443788,
                            0.12489794939756394,
                            -0.029145002365112306,
                            0.3492768108844757,
                            0.08386233448982239,
                            0.186148539185524,
                            -0.18350449204444886,
                            0.26402392983436587,
                            0.13679525256156922,
                            0.2812357246875763
                        ],
                        "array": []
                    },
                    {
                        "data": [
                            -0.3442594110965729,
                            0.10026127099990845,
                            0.033062487840652469,
                            -0.10562264919281006,
                            -0.08469852805137634,
                            0.019061297178268434,
                            -0.1790722757577896,
                            0.12731340527534486,
                            0.11174788326025009,
                            0.21821478009223939,
                            -0.1668584644794464,
                            0.3056102693080902,
                            0.12137414515018463,
                            0.20511606335639954,
                            -0.2932737171649933,
                            -0.2298915684223175,
                            0.05353066325187683,
                            -0.022855430841445924,
                            -0.2916318476200104,
                            0.20772182941436768,
                            0.29391905665397646,
                            0.3255027234554291,
                            0.3172436058521271,
                            0.2730545103549957,
                            0.02192273736000061,
                            -0.2581395208835602,
                            0.28048667311668398,
                            0.19312115013599397
                        ],
                        "array": []
                    }
                ]
            },
            {
                "data": [],
                "array": [
                    {
                        "data": [
                            0.5491194725036621,
                            0.9727654457092285,
                            0.7644319534301758,
                            0.899442195892334,
                            -0.7528409957885742,
                            -0.8873286247253418,
                            0.33207008242607119,
                            0.5866363048553467,
                            -0.32820212841033938,
                            0.646864652633667,
                            -0.5018343925476074,
                            0.18405139446258546,
                            0.2202385663986206,
                            -0.4304767847061157,
                            -0.6874310970306397,
                            -0.7523298263549805
                        ],
                        "array": []
                    },
                    {
                        "data": [
                            -0.5342748165130615,
                            0.4844169318675995,
                            -0.5066845417022705,
                            -0.15286195278167725,
                            -0.006838679313659668,
                            0.659276008605957,
                            -0.2434748411178589,
                            0.1523963212966919,
                            0.253355473279953,
                            0.2106395959854126,
                            0.3395659625530243,
                            0.42717453837394717,
                            0.6839430332183838,
                            -0.11159336566925049,
                            0.15470850467681886,
                            0.7159457206726074
                        ],
                        "array": []
                    }
                ]
            }
        ]
    },
    "m_layerLengths": [
        28,
        16,
        2
    ],
    "m_dataFileName": "NN_0",
    "m_activisionType": 2,
    "m_activisionTypeOutput": 4,
    "m_costType": 0,
    "m_initializationType": 0,
    "m_activisionConstant": 0.009999999776482582
}
