{
    "m_isCorrupted": false,
    "m_trainingData": {
        "m_updateType": 0,
        "m_learnRate": 0.20000000298023225,
        "m_batchSize": 10,
        "m_curveRange": 10000,
        "m_curve": {
            "serializedVersion": "2",
            "m_Curve": [
                {
                    "serializedVersion": "3",
                    "time": 0.0,
                    "value": 1.0,
                    "inSlope": 0.0,
                    "outSlope": 0.0,
                    "tangentMode": 0,
                    "weightedMode": 0,
                    "inWeight": 0.0,
                    "outWeight": 0.0
                },
                {
                    "serializedVersion": "3",
                    "time": 0.3051183521747589,
                    "value": 0.7851641178131104,
                    "inSlope": -1.2684203386306763,
                    "outSlope": -1.2684203386306763,
                    "tangentMode": 0,
                    "weightedMode": 0,
                    "inWeight": 0.3333333432674408,
                    "outWeight": 0.3333333432674408
                },
                {
                    "serializedVersion": "3",
                    "time": 1.0,
                    "value": 0.20000000298023225,
                    "inSlope": 0.0,
                    "outSlope": 0.0,
                    "tangentMode": 0,
                    "weightedMode": 0,
                    "inWeight": 0.0,
                    "outWeight": 0.0
                }
            ],
            "m_PreInfinity": 2,
            "m_PostInfinity": 2,
            "m_RotationOrder": 4
        },
        "m_regularizationKeepRate": 1.0,
        "m_weightDecayRate": 0.009999999776482582,
        "m_trainNetworkOnline": true,
        "m_saveSamplesOnline": true,
        "m_trainingCooldownOnlineMin": 0.0,
        "m_trainingCooldownOnlineMax": 0.0,
        "m_trainNetworkOffline": true,
        "m_trainingUnits": 6,
        "m_trainingCooldownOfflineMin": 0.019999999552965165,
        "m_trainingCooldownOfflineMax": 0.019999999552965165,
        "m_trainingCooldownOfflineGatherMin": 100.0,
        "m_trainingCooldownOfflineGatherMax": 100.0,
        "m_stopAtMaximumUnitCount": 0,
        "m_trainingCooldownRdyOnline": 159.4550323486328,
        "m_trainingCooldownRdyOffline": 159.4680938720703,
        "m_trainingCooldownRdyOfflineGather": 200.00555419921876,
        "m_trainingUnitsCompleted": 3684
    },
    "m_sampleData": {
        "m_inputType": 0,
        "m_tossNoOutputSamples": true,
        "m_minSamples": 300,
        "m_maxSamples": 1000,
        "m_batchSize": 1,
        "m_screenshotData": {
            "m_captureWidth": 0,
            "m_captureHeight": 0,
            "m_backgroundHeight": 0.0,
            "m_changeObstacleScales": true,
            "m_format": 1,
            "m_allowHDR": false,
            "m_activisionThreshold": 0.10000000149011612
        }
    },
    "m_visuilizationData": {
        "m_visualize": true,
        "m_height": 7.0,
        "m_width": 3.0,
        "m_marginX": 0.25,
        "m_marginY": 0.25,
        "m_orientation": 2,
        "m_nodesScaleFactorGlobal": 0.5,
        "m_weightsScaleFactorGloal": 0.5,
        "m_nodesScaleFactorLayerWise": [
            0.25
        ],
        "m_weightsScaleFactorLayerWise": [
            0.30000001192092898,
            0.5,
            0.5
        ],
        "m_relativePosition": {
            "x": 4.5,
            "y": 1.5,
            "z": 0.0
        },
        "m_relativeRotation": {
            "x": 0.0,
            "y": 0.0,
            "z": 0.0
        }
    },
    "m_networkData": {
        "m_biases": [
            {
                "data": [
                    0.25878119468688967,
                    -0.26380425691604617,
                    -0.5111954212188721,
                    0.649212121963501,
                    1.1007182598114014,
                    -0.6291071772575378,
                    -0.40970316529273989,
                    -0.7760033011436462,
                    0.2365953028202057,
                    -0.8655065298080444,
                    -0.1598813384771347,
                    0.10020086914300919,
                    -0.8635803461074829,
                    -0.9507675170898438,
                    0.736653745174408,
                    -0.7984605431556702
                ],
                "array": []
            },
            {
                "data": [
                    -0.15270546078681947,
                    0.1667833775281906
                ],
                "array": []
            }
        ],
        "m_weights": [
            {
                "data": [],
                "array": [
                    {
                        "data": [
                            -0.10318727046251297,
                            -0.019310124218463899,
                            -0.222711443901062,
                            -0.06486111879348755,
                            -0.282669335603714,
                            0.02868468500673771,
                            -0.03305488079786301,
                            0.0030778157524764539,
                            -0.26060956716537478,
                            -0.1791083961725235,
                            0.019115744158625604,
                            0.15904927253723145,
                            0.02335282601416111,
                            -0.14235597848892213,
                            0.1468867063522339,
                            -0.08304785192012787,
                            0.05455385148525238,
                            -0.12636631727218629,
                            0.03655286505818367,
                            0.05867350473999977,
                            0.003673737868666649,
                            -0.1962955743074417,
                            -0.009820399805903435,
                            -0.1678721010684967,
                            0.12033238261938095,
                            -0.14848825335502625,
                            -0.05970697104930878,
                            -0.0036287447437644006
                        ],
                        "array": []
                    },
                    {
                        "data": [
                            0.20271776616573335,
                            -1.3686637878417969,
                            -0.09844736009836197,
                            1.6695445775985718,
                            -0.20182518661022187,
                            -0.7704076170921326,
                            0.6218082904815674,
                            0.5733701586723328,
                            -0.12761254608631135,
                            -0.43290963768959048,
                            0.4974650740623474,
                            -0.4277166724205017,
                            0.017017623409628869,
                            -0.30645862221717837,
                            0.14054034650325776,
                            1.145588994026184,
                            -0.5931384563446045,
                            0.03225551173090935,
                            -1.0619231462478638,
                            0.7551043033599854,
                            -0.8568820357322693,
                            0.15261024236679078,
                            0.3885268568992615,
                            0.6125451326370239,
                            -0.9283576011657715,
                            -0.17345142364501954,
                            1.6444207429885865,
                            -0.7215598821640015
                        ],
                        "array": []
                    },
                    {
                        "data": [
                            -0.1556113064289093,
                            0.044494181871414188,
                            -0.13609644770622254,
                            -0.030503569170832635,
                            -0.10460222512483597,
                            -0.15875332057476045,
                            0.013095760717988015,
                            0.05250334367156029,
                            -0.09883489459753037,
                            0.03555948659777641,
                            -0.1300695538520813,
                            0.01928073726594448,
                            -0.03187628835439682,
                            -0.020478401333093644,
                            -0.03259825333952904,
                            -0.0914236530661583,
                            -0.04917207360267639,
                            0.06776446104049683,
                            0.012648683972656727,
                            -0.06652191281318665,
                            0.11321641504764557,
                            0.0899902954697609,
                            -0.05671379342675209,
                            0.010068845003843308,
                            0.08917764574289322,
                            -0.09040495753288269,
                            -0.06735118478536606,
                            -0.025580942630767823
                        ],
                        "array": []
                    },
                    {
                        "data": [
                            -0.4929202198982239,
                            -0.17820966243743897,
                            0.25954997539520266,
                            0.047954775393009189,
                            -1.0563855171203614,
                            0.13759304583072663,
                            0.3420676589012146,
                            1.0274642705917359,
                            -1.3070496320724488,
                            0.06431363523006439,
                            0.24541087448596955,
                            0.8915109038352966,
                            -0.45186659693717959,
                            0.13395623862743379,
                            0.30814406275749209,
                            -0.045785412192344668,
                            -0.2596091628074646,
                            0.02028035745024681,
                            -0.019408268854022027,
                            0.3411763608455658,
                            -0.5106043815612793,
                            0.01624355837702751,
                            0.14124184846878053,
                            -0.18274323642253877,
                            0.5889816880226135,
                            -0.05233609303832054,
                            -0.5729159712791443,
                            -0.594541072845459
                        ],
                        "array": []
                    },
                    {
                        "data": [
                            1.023951530456543,
                            -0.03469514101743698,
                            0.10993462800979614,
                            -1.0505588054656983,
                            1.5819281339645386,
                            0.02851916290819645,
                            -0.49137330055236819,
                            -1.2385722398757935,
                            1.6919502019882203,
                            -0.5544163584709168,
                            -0.36167284846305849,
                            -1.031808853149414,
                            0.8366530537605286,
                            -0.03705867379903793,
                            -0.2518274784088135,
                            0.029457937926054,
                            0.027309082448482515,
                            0.3324506878852844,
                            0.37109291553497317,
                            -0.4322722256183624,
                            -0.42132148146629336,
                            0.3917140066623688,
                            0.25907939672470095,
                            0.18693827092647553,
                            0.3243280351161957,
                            -0.28847816586494448,
                            -0.11786395311355591,
                            0.3520013689994812
                        ],
                        "array": []
                    },
                    {
                        "data": [
                            0.1454954445362091,
                            -0.15608717501163484,
                            -0.09641348570585251,
                            -0.05920341983437538,
                            -0.15584394335746766,
                            0.05199204012751579,
                            0.038379475474357608,
                            0.043624021112918857,
                            0.07680317014455795,
                            -0.010050421580672264,
                            0.07192014157772064,
                            0.09894369542598725,
                            0.1122664213180542,
                            -0.09824548661708832,
                            -0.10499845445156098,
                            0.1345987319946289,
                            -0.12522046267986298,
                            0.0005019152304157615,
                            0.04919225722551346,
                            0.09812992066144943,
                            -0.04562416300177574,
                            -0.06071050092577934,
                            -0.14364370703697205,
                            -0.07225538045167923,
                            -0.0789121612906456,
                            0.06493617594242096,
                            -0.04395047575235367,
                            -0.05992709472775459
                        ],
                        "array": []
                    },
                    {
                        "data": [
                            0.06968285143375397,
                            0.03922049328684807,
                            -0.14209826290607453,
                            0.06575823575258255,
                            0.08137387037277222,
                            0.08578794449567795,
                            -0.08656029403209686,
                            -0.09194204211235047,
                            0.1669744849205017,
                            0.05842483788728714,
                            0.0010345118353143335,
                            0.00270150532014668,
                            -0.062464941293001178,
                            0.058130912482738498,
                            -0.12853732705116273,
                            0.11982489377260208,
                            -0.15490402281284333,
                            -0.15937049686908723,
                            0.06837654113769531,
                            -0.13957872986793519,
                            -0.020161215215921403,
                            -0.04013700783252716,
                            -0.0486183762550354,
                            0.061115436255931857,
                            -0.1664346158504486,
                            -0.05217323824763298,
                            -0.06539220362901688,
                            -0.11293966323137284
                        ],
                        "array": []
                    },
                    {
                        "data": [
                            -0.016892176121473314,
                            -0.15603987872600556,
                            -0.062456246465444568,
                            0.028743410483002664,
                            -0.15309113264083863,
                            0.11367983371019364,
                            0.13784076273441316,
                            -0.15166357159614564,
                            -0.025974923744797708,
                            -0.12897783517837525,
                            0.06965987384319306,
                            -0.16093435883522035,
                            -0.11726577579975128,
                            -0.1331535130739212,
                            0.016249442473053933,
                            0.039064835757017139,
                            -0.09115417301654816,
                            0.07251196354627609,
                            -0.061136942356824878,
                            -0.05904128775000572,
                            -0.04777601733803749,
                            -0.11512535810470581,
                            0.022219134494662286,
                            -0.11729932576417923,
                            0.1477489024400711,
                            0.11549606919288635,
                            -0.0351690798997879,
                            0.05984199792146683
                        ],
                        "array": []
                    },
                    {
                        "data": [
                            0.5100870132446289,
                            0.8347675800323486,
                            -0.8585836887359619,
                            -0.37536466121673586,
                            -0.5706524848937988,
                            0.38609418272972109,
                            -0.8953607082366943,
                            1.0171451568603516,
                            -0.6603104472160339,
                            0.11577463150024414,
                            -0.3799291253089905,
                            1.0541304349899293,
                            -0.06135993450880051,
                            0.3368627727031708,
                            -0.38364967703819277,
                            0.027313075959682466,
                            0.5617859959602356,
                            0.061985116451978686,
                            -0.11057911068201065,
                            -0.35152074694633486,
                            0.04489443451166153,
                            0.0340694934129715,
                            -0.09453000873327255,
                            -0.4745066463947296,
                            1.0384219884872437,
                            -1.1508740186691285,
                            -0.626503586769104,
                            1.0035008192062379
                        ],
                        "array": []
                    },
                    {
                        "data": [
                            0.10378587990999222,
                            0.26276224851608279,
                            0.16209420561790467,
                            0.014965933747589589,
                            -0.11273176968097687,
                            0.012280607596039772,
                            -0.019053664058446885,
                            0.09791249781847,
                            0.035401128232479098,
                            -0.005898433271795511,
                            0.1384798288345337,
                            0.06826026737689972,
                            -0.08810438960790634,
                            0.058297548443078998,
                            -0.05501338839530945,
                            -0.12500235438346864,
                            0.07007535547018051,
                            -0.026721658185124399,
                            0.13811545073986054,
                            -0.03143453970551491,
                            -0.07347667217254639,
                            -0.06699138879776001,
                            0.11676093190908432,
                            0.2271348088979721,
                            0.06678026169538498,
                            -0.10458850860595703,
                            0.18885520100593568,
                            -0.1354070007801056
                        ],
                        "array": []
                    },
                    {
                        "data": [
                            0.0503375269472599,
                            1.35638427734375,
                            -0.4873950779438019,
                            -0.19909784197807313,
                            0.13182669878005982,
                            1.300150752067566,
                            0.46339866518974306,
                            -0.7675436735153198,
                            -0.19090436398983003,
                            1.1372528076171876,
                            0.4712534546852112,
                            -1.173105001449585,
                            -0.005665839184075594,
                            0.8561369776725769,
                            0.08852311223745346,
                            -0.44046738743782046,
                            0.5690566897392273,
                            0.13447874784469605,
                            0.11229347437620163,
                            -0.418921560049057,
                            0.3741943836212158,
                            0.050296980887651446,
                            0.03432846441864967,
                            -0.8117361068725586,
                            -1.4622136354446412,
                            -0.5249922275543213,
                            0.5076658129692078,
                            1.2151055335998536
                        ],
                        "array": []
                    },
                    {
                        "data": [
                            -1.4070082902908326,
                            0.9077268838882446,
                            1.0999031066894532,
                            -0.5523588061332703,
                            -1.336342215538025,
                            0.6759325861930847,
                            1.2895677089691163,
                            1.4530565738677979,
                            -1.4981862306594849,
                            0.5784571170806885,
                            0.5869649052619934,
                            0.666896402835846,
                            -0.4324181079864502,
                            0.35927924513816836,
                            0.8206360936164856,
                            -0.02927834540605545,
                            -0.5145391225814819,
                            -0.1278274655342102,
                            0.5631726384162903,
                            0.23298144340515138,
                            -0.7237908840179443,
                            0.03757096454501152,
                            0.18947888910770417,
                            -0.3178498446941376,
                            1.6083616018295289,
                            0.9944174885749817,
                            -1.2803165912628174,
                            -1.38302481174469
                        ],
                        "array": []
                    },
                    {
                        "data": [
                            -0.0442085936665535,
                            -0.06397636979818344,
                            0.048838771879673007,
                            -0.1163003221154213,
                            0.02615266479551792,
                            -0.07962549477815628,
                            0.02801503799855709,
                            -0.0626567006111145,
                            -0.018216297030448915,
                            0.158050999045372,
                            0.11778683960437775,
                            0.0382491797208786,
                            0.035712677985429767,
                            -0.1226140484213829,
                            -0.10083655267953873,
                            0.03585882857441902,
                            0.09147530794143677,
                            0.0005706737865693867,
                            0.01761736162006855,
                            -0.023847348988056184,
                            0.14139118790626527,
                            0.0068775685504078869,
                            -0.12069021165370941,
                            -0.1335652470588684,
                            0.003814812283962965,
                            -0.12015461921691895,
                            -0.1385802924633026,
                            0.10403736680746079
                        ],
                        "array": []
                    },
                    {
                        "data": [
                            -0.020711248740553857,
                            0.08807604759931565,
                            0.08903755992650986,
                            0.03040328435599804,
                            0.16071446239948274,
                            0.045042701065540317,
                            -0.15070529282093049,
                            0.12831638753414155,
                            -0.09593479335308075,
                            -0.08871858566999436,
                            0.06667029857635498,
                            -0.02588515169918537,
                            -0.0028989878483116628,
                            0.14657437801361085,
                            -0.11351558566093445,
                            0.09791019558906555,
                            -0.0076759313233196739,
                            0.001815071445889771,
                            -0.10010458528995514,
                            -0.027034003287553788,
                            -0.1678788959980011,
                            -0.11553449928760529,
                            0.14528091251850129,
                            0.10338675230741501,
                            -0.012166145257651806,
                            0.10464940965175629,
                            -0.09221980720758438,
                            0.10699587315320969
                        ],
                        "array": []
                    },
                    {
                        "data": [
                            0.3483354151248932,
                            0.6025030016899109,
                            -0.03489581495523453,
                            -0.25837355852127077,
                            1.2769775390625,
                            0.24550223350524903,
                            -0.1014944538474083,
                            -0.8494296669960022,
                            1.3116650581359864,
                            0.22150371968746186,
                            -0.11856961995363236,
                            -1.1232225894927979,
                            -0.26301902532577517,
                            0.27488037943840029,
                            -0.16160503029823304,
                            -0.09684795141220093,
                            0.372348815202713,
                            0.18425621092319489,
                            0.1362280249595642,
                            -0.24721123278141023,
                            0.13850010931491853,
                            -0.48795923590660097,
                            0.12257739901542664,
                            -0.8184688091278076,
                            -0.5004175901412964,
                            0.11054205894470215,
                            0.03997573256492615,
                            0.6496599316596985
                        ],
                        "array": []
                    },
                    {
                        "data": [
                            -0.1269519329071045,
                            -0.16749979555606843,
                            0.02301674894988537,
                            0.032219015061855319,
                            -0.17409296333789826,
                            0.09298450499773026,
                            0.054993268102407458,
                            0.02954249642789364,
                            -0.16459955275058747,
                            -0.04314617067575455,
                            -0.12747395038604737,
                            -0.10656945407390595,
                            0.06475643068552017,
                            0.14711764454841615,
                            0.08937150985002518,
                            -0.08143357932567597,
                            -0.12850604951381684,
                            -0.02531447261571884,
                            -0.07567133754491806,
                            0.026110174134373666,
                            0.05120255798101425,
                            0.07058457285165787,
                            0.0635177418589592,
                            0.07385778427124024,
                            -0.12622734904289246,
                            -0.16960200667381288,
                            0.07895021885633469,
                            -0.06272199749946594
                        ],
                        "array": []
                    }
                ]
            },
            {
                "data": [],
                "array": [
                    {
                        "data": [
                            0.1802716702222824,
                            2.1100380420684816,
                            0.22787725925445558,
                            0.9951286315917969,
                            -1.51887047290802,
                            0.16957272589206696,
                            -0.37565726041793826,
                            0.09467051923274994,
                            2.1519696712493898,
                            -0.2602672874927521,
                            -1.6182986497879029,
                            2.324312210083008,
                            0.26565611362457278,
                            0.03599442169070244,
                            -1.2496179342269898,
                            0.3383912444114685
                        ],
                        "array": []
                    },
                    {
                        "data": [
                            -0.32564976811408999,
                            -2.1041030883789064,
                            0.36666443943977358,
                            -0.9485455751419067,
                            1.5271329879760743,
                            -0.33022287487983706,
                            0.34630244970321658,
                            0.32585442066192629,
                            -2.0898818969726564,
                            -0.028114328160881997,
                            1.6326234340667725,
                            -2.3029346466064455,
                            -0.3960411250591278,
                            -0.440018892288208,
                            1.2163769006729127,
                            -0.4124286472797394
                        ],
                        "array": []
                    }
                ]
            }
        ]
    },
    "m_layerLengths": [
        28,
        16,
        2
    ],
    "m_dataFileName": "NN_1",
    "m_activisionType": 2,
    "m_activisionTypeOutput": 4,
    "m_costType": 0,
    "m_initializationType": 0,
    "m_activisionConstant": 0.009999999776482582
}
