{
    "m_isCorrupted": false,
    "m_trainingData": {
        "m_updateType": 0,
        "m_learnRate": 0.20000000298023225,
        "m_batchSize": 10,
        "m_curveRange": 10000,
        "m_curve": {
            "serializedVersion": "2",
            "m_Curve": [
                {
                    "serializedVersion": "3",
                    "time": 0.0,
                    "value": 1.0,
                    "inSlope": 0.0,
                    "outSlope": 0.0,
                    "tangentMode": 0,
                    "weightedMode": 0,
                    "inWeight": 0.0,
                    "outWeight": 0.0
                },
                {
                    "serializedVersion": "3",
                    "time": 0.3051183521747589,
                    "value": 0.7851641178131104,
                    "inSlope": -1.2684203386306763,
                    "outSlope": -1.2684203386306763,
                    "tangentMode": 0,
                    "weightedMode": 0,
                    "inWeight": 0.3333333432674408,
                    "outWeight": 0.3333333432674408
                },
                {
                    "serializedVersion": "3",
                    "time": 1.0,
                    "value": 0.20000000298023225,
                    "inSlope": 0.0,
                    "outSlope": 0.0,
                    "tangentMode": 0,
                    "weightedMode": 0,
                    "inWeight": 0.0,
                    "outWeight": 0.0
                }
            ],
            "m_PreInfinity": 2,
            "m_PostInfinity": 2,
            "m_RotationOrder": 4
        },
        "m_regularizationKeepRate": 1.0,
        "m_weightDecayRate": 0.009999999776482582,
        "m_trainNetworkOnline": true,
        "m_saveSamplesOnline": true,
        "m_trainingCooldownOnlineMin": 0.0,
        "m_trainingCooldownOnlineMax": 0.0,
        "m_trainNetworkOffline": true,
        "m_trainingUnits": 20,
        "m_trainingCooldownOfflineMin": 0.019999999552965165,
        "m_trainingCooldownOfflineMax": 0.019999999552965165,
        "m_trainingCooldownOfflineGatherMin": 100.0,
        "m_trainingCooldownOfflineGatherMax": 100.0,
        "m_stopAtMaximumUnitCount": 0,
        "m_trainingCooldownRdyOnline": 0.0,
        "m_trainingCooldownRdyOffline": 0.019999999552965165,
        "m_trainingCooldownRdyOfflineGather": 100.0,
        "m_trainingUnitsCompleted": 0
    },
    "m_sampleData": {
        "m_inputType": 0,
        "m_tossNoOutputSamples": true,
        "m_minSamples": 300,
        "m_maxSamples": 1000,
        "m_batchSize": 1,
        "m_screenshotData": {
            "m_captureWidth": 0,
            "m_captureHeight": 0,
            "m_backgroundHeight": 0.0,
            "m_changeObstacleScales": true,
            "m_format": 1,
            "m_allowHDR": false,
            "m_activisionThreshold": 0.10000000149011612
        }
    },
    "m_visuilizationData": {
        "m_visualize": true,
        "m_height": 7.0,
        "m_width": 3.0,
        "m_marginX": 0.25,
        "m_marginY": 0.25,
        "m_orientation": 2,
        "m_nodesScaleFactorGlobal": 0.5,
        "m_weightsScaleFactorGloal": 0.5,
        "m_nodesScaleFactorLayerWise": [
            0.5,
            0.75
        ],
        "m_weightsScaleFactorLayerWise": [
            0.30000001192092898,
            0.5,
            0.5
        ],
        "m_relativePosition": {
            "x": 4.5,
            "y": 1.5,
            "z": 0.0
        },
        "m_relativeRotation": {
            "x": 0.0,
            "y": 0.0,
            "z": 0.0
        }
    },
    "m_networkData": {
        "m_biases": [
            {
                "data": [
                    0.28354617953300478,
                    0.03617727756500244,
                    0.26278015971183779,
                    -0.2675827741622925,
                    -0.8376338481903076,
                    -0.052198052406311038,
                    0.23727881908416749,
                    -0.29972875118255618,
                    0.15823113918304444,
                    -0.09049546718597412,
                    -0.13774335384368897,
                    -0.9812793731689453,
                    -0.47017228603363039,
                    0.2946488559246063,
                    -0.35055482387542727,
                    -0.32063043117523196
                ],
                "array": []
            },
            {
                "data": [
                    -0.14985597133636475,
                    -0.0763934850692749
                ],
                "array": []
            }
        ],
        "m_weights": [
            {
                "data": [],
                "array": [
                    {
                        "data": [
                            0.3214608132839203,
                            0.23744025826454163,
                            0.212386816740036,
                            -0.11131104826927185,
                            -0.13859069347381593,
                            -0.26785174012184145,
                            0.32160136103630068,
                            0.21789279580116273,
                            0.25662532448768618,
                            0.04751303791999817,
                            -0.23439159989356996,
                            0.28867605328559878,
                            -0.17679205536842347,
                            -0.027567803859710695,
                            0.22967234253883363,
                            0.025170564651489259,
                            -0.27167055010795596,
                            -0.2833819091320038,
                            -0.23447759449481965,
                            0.2997801601886749,
                            0.031192421913146974,
                            0.04179218411445618,
                            -0.24967870116233827,
                            -0.01072227954864502,
                            -0.19793853163719178,
                            -0.24585142731666566,
                            -0.022570103406906129,
                            -0.050618916749954227
                        ],
                        "array": []
                    },
                    {
                        "data": [
                            0.21301361918449403,
                            -0.11019954830408097,
                            0.2967208921909332,
                            0.18680039048194886,
                            0.3196570575237274,
                            0.07671463489532471,
                            -0.33122530579566958,
                            0.15828153491020204,
                            -0.05617007613182068,
                            0.051150381565093997,
                            0.2690921127796173,
                            -0.29189375042915347,
                            -0.06486472487449646,
                            -0.3534620702266693,
                            -0.22553130984306336,
                            0.1030440628528595,
                            -0.11579083651304245,
                            -0.20474591851234437,
                            -0.29841694235801699,
                            -0.11355417966842652,
                            -0.30800190567970278,
                            -0.11236497759819031,
                            0.03086400032043457,
                            -0.34229984879493716,
                            0.1598397195339203,
                            0.06370559334754944,
                            -0.29956352710723879,
                            -0.1102926954627037
                        ],
                        "array": []
                    },
                    {
                        "data": [
                            -0.059471845626831058,
                            0.015334069728851319,
                            -0.010297685861587525,
                            0.056062519550323489,
                            0.2895869314670563,
                            -0.11598706990480423,
                            -0.2244950830936432,
                            0.14037486910820008,
                            0.016486376523971559,
                            -0.34718379378318789,
                            0.20964321494102479,
                            -0.04255881905555725,
                            -0.3133988082408905,
                            0.19693316519260407,
                            0.2799746096134186,
                            0.13966487348079682,
                            0.264297753572464,
                            0.08964228630065918,
                            0.1343488097190857,
                            0.1440902054309845,
                            -0.07466232776641846,
                            -0.2208215892314911,
                            -0.08931627869606018,
                            -0.05211520195007324,
                            0.3075108826160431,
                            -0.07583427429199219,
                            -0.2685646116733551,
                            -0.1314011812210083
                        ],
                        "array": []
                    },
                    {
                        "data": [
                            -0.34529682993888857,
                            0.11086787283420563,
                            0.1643620729446411,
                            0.31537625193595889,
                            0.28432583808898928,
                            -0.04742318391799927,
                            -0.12160229682922363,
                            -0.0026949942111968996,
                            -0.3161473572254181,
                            -0.11235147714614868,
                            -0.18678632378578187,
                            -0.12478715926408768,
                            -0.11327794939279556,
                            0.003325432538986206,
                            -0.32545390725135805,
                            -0.234786257147789,
                            -0.3209070861339569,
                            -0.3026876151561737,
                            0.1312759667634964,
                            -0.14883217215538026,
                            -0.06423193216323853,
                            -0.018941670656204225,
                            0.02762281894683838,
                            -0.10203704237937927,
                            -0.348306804895401,
                            -0.17062875628471375,
                            -0.2553185224533081,
                            -0.2913656532764435
                        ],
                        "array": []
                    },
                    {
                        "data": [
                            -0.26417508721351626,
                            0.12881828844547273,
                            0.29962489008903506,
                            0.16728201508522035,
                            0.11652093380689621,
                            0.0053296685218811039,
                            0.21202078461647035,
                            -0.16737589240074159,
                            -0.006659835577011108,
                            0.1715051233768463,
                            -0.1464182734489441,
                            0.23910841345787049,
                            0.2700206935405731,
                            -0.24114909768104554,
                            0.21721085906028748,
                            0.2387131005525589,
                            -0.24747952818870545,
                            -0.33533909916877749,
                            -0.2544470727443695,
                            0.2658446133136749,
                            -0.327497273683548,
                            0.15528297424316407,
                            -0.19015654921531678,
                            0.3092292249202728,
                            0.3080463111400604,
                            -0.05562645196914673,
                            -0.09247535467147827,
                            -0.011801064014434815
                        ],
                        "array": []
                    },
                    {
                        "data": [
                            0.04220175743103027,
                            0.03971424698829651,
                            0.29313865303993227,
                            -0.2316385805606842,
                            -0.01834067702293396,
                            0.04942968487739563,
                            -0.22330935299396516,
                            -0.2915172874927521,
                            0.2086251974105835,
                            -0.30326947569847109,
                            0.17993298172950746,
                            -0.019852638244628907,
                            -0.24988344311714173,
                            0.04525437951087952,
                            -0.22480741143226624,
                            -0.17245736718177796,
                            0.3170526325702667,
                            -0.3146498203277588,
                            -0.306172639131546,
                            0.3093285858631134,
                            -0.24323949217796327,
                            -0.046717047691345218,
                            0.012509822845458985,
                            0.022542357444763185,
                            -0.2911180555820465,
                            -0.09942513704299927,
                            0.2935718595981598,
                            -0.13357695937156678
                        ],
                        "array": []
                    },
                    {
                        "data": [
                            -0.24351808428764344,
                            -0.2843905985355377,
                            -0.0727396011352539,
                            0.12384360283613205,
                            -0.14941111207008363,
                            0.2999710738658905,
                            -0.3453216254711151,
                            -0.29738858342170718,
                            -0.1385946273803711,
                            0.3408488929271698,
                            -0.306880384683609,
                            -0.22178682684898377,
                            0.2980349361896515,
                            -0.2807978093624115,
                            -0.015527278184890747,
                            0.22490718960762025,
                            -0.3013876974582672,
                            -0.28719833493232729,
                            0.047108083963394168,
                            0.12530779838562013,
                            -0.2535671293735504,
                            -0.08450007438659668,
                            -0.1348104476928711,
                            0.11653350293636322,
                            -0.019395947456359865,
                            -0.08158150315284729,
                            -0.2526896297931671,
                            -0.3482652008533478
                        ],
                        "array": []
                    },
                    {
                        "data": [
                            -0.11501896381378174,
                            0.052736103534698489,
                            -0.20859554409980775,
                            0.28477606177330019,
                            0.12259943783283234,
                            -0.016108304262161256,
                            0.33504989743232729,
                            0.12097644060850144,
                            0.3172466456890106,
                            -0.012233257293701172,
                            -0.1901220828294754,
                            0.2201201617717743,
                            0.3101394474506378,
                            0.30843600630760195,
                            0.12420810759067536,
                            -0.12394094467163086,
                            0.1427379697561264,
                            -0.11110629886388779,
                            -0.2469845712184906,
                            -0.11399132758378983,
                            0.3484000861644745,
                            0.05248069763183594,
                            0.34555748105049136,
                            -0.19970795512199403,
                            0.11160872876644135,
                            -0.2408175766468048,
                            0.004596084356307983,
                            0.13587088882923127
                        ],
                        "array": []
                    },
                    {
                        "data": [
                            -0.15887007117271424,
                            0.2725820243358612,
                            0.29884788393974306,
                            -0.3173968493938446,
                            0.2792976200580597,
                            -0.2639693319797516,
                            0.11949752271175385,
                            -0.2411452829837799,
                            -0.24581189453601838,
                            -0.3434008061885834,
                            -0.042921215295791629,
                            -0.25414302945137026,
                            0.07277113199234009,
                            -0.18993839621543885,
                            -0.01033031940460205,
                            -0.09607765078544617,
                            0.1428890973329544,
                            -0.2891499698162079,
                            0.09607693552970886,
                            -0.006902754306793213,
                            0.2943204343318939,
                            0.22426065802574159,
                            0.2721822261810303,
                            0.023573368787765504,
                            -0.17158624529838563,
                            -0.18642738461494447,
                            0.3049645721912384,
                            -0.34111127257347109
                        ],
                        "array": []
                    },
                    {
                        "data": [
                            -0.04071617126464844,
                            0.17020884156227113,
                            -0.2651675045490265,
                            -0.06299087405204773,
                            0.2761891186237335,
                            0.23795242607593537,
                            -0.09368345141410828,
                            -0.2710213363170624,
                            -0.3265591561794281,
                            -0.20097734034061433,
                            -0.22611573338508607,
                            -0.04688030481338501,
                            0.10720058530569077,
                            0.10854001343250275,
                            -0.06591957807540894,
                            0.07199546694755554,
                            -0.16465379297733308,
                            -0.06503632664680481,
                            -0.15845809876918794,
                            -0.19342681765556336,
                            0.32948586344718935,
                            -0.2746691405773163,
                            -0.1131381094455719,
                            -0.21905174851417542,
                            0.3277697265148163,
                            0.06474611163139343,
                            0.20556846261024476,
                            0.02908945083618164
                        ],
                        "array": []
                    },
                    {
                        "data": [
                            0.07460284233093262,
                            -0.20956483483314515,
                            0.047320425510406497,
                            0.1292092502117157,
                            0.29821187257766726,
                            0.25922098755836489,
                            -0.04498395323753357,
                            0.259844571352005,
                            -0.17079220712184907,
                            -0.2311873584985733,
                            -0.21174922585487367,
                            -0.29778173565864565,
                            -0.143315851688385,
                            -0.13278940320014954,
                            0.13617536425590516,
                            -0.350808709859848,
                            -0.33183571696281435,
                            0.23365099728107453,
                            -0.03094106912612915,
                            -0.12742379307746888,
                            0.34326693415641787,
                            0.16624613106250764,
                            0.3156073987483978,
                            0.32591280341148379,
                            0.1642514020204544,
                            -0.22566266357898713,
                            -0.15925545990467072,
                            -0.10445568710565567
                        ],
                        "array": []
                    },
                    {
                        "data": [
                            0.1392698734998703,
                            -0.2702055275440216,
                            0.21995779871940614,
                            -0.21970334649085999,
                            0.10683466494083405,
                            -0.22846350073814393,
                            0.1045600026845932,
                            -0.1631283313035965,
                            -0.19441446661949159,
                            -0.1680540144443512,
                            -0.1955963671207428,
                            0.0015907585620880128,
                            -0.03109961748123169,
                            0.07976841926574707,
                            0.2941724956035614,
                            -0.026850879192352296,
                            0.30500248074531557,
                            0.2255241572856903,
                            -0.3086099326610565,
                            -0.29537519812583926,
                            -0.30308082699775698,
                            -0.22367575764656068,
                            0.30650416016578677,
                            0.2757072150707245,
                            0.3220614492893219,
                            0.30345502495765688,
                            -0.13162767887115479,
                            -0.2557432949542999
                        ],
                        "array": []
                    },
                    {
                        "data": [
                            0.05756226181983948,
                            0.1780790239572525,
                            -0.32781270146369936,
                            0.15670397877693177,
                            -0.028347164392471315,
                            -0.07338133454322815,
                            0.2823212444782257,
                            0.2237839251756668,
                            0.05747973918914795,
                            0.18159320950508119,
                            0.2136727124452591,
                            0.022329181432724,
                            -0.2277410924434662,
                            0.15469063818454743,
                            -0.20993581414222718,
                            -0.2902664244174957,
                            -0.19876083731651307,
                            0.2807164490222931,
                            0.026734977960586549,
                            -0.12588819861412049,
                            0.11600328981876373,
                            -0.11581915616989136,
                            -0.06152525544166565,
                            0.260996550321579,
                            -0.1549239456653595,
                            0.15868818759918214,
                            -0.27419742941856387,
                            -0.29053565859794619
                        ],
                        "array": []
                    },
                    {
                        "data": [
                            -0.24903105199337007,
                            0.30855849385261538,
                            0.27946117520332339,
                            0.2556697726249695,
                            -0.1346202790737152,
                            0.17352336645126344,
                            -0.2826097905635834,
                            0.33477982878685,
                            -0.0050182044506073,
                            0.17147013545036317,
                            -0.23095080256462098,
                            0.17738375067710877,
                            0.058687835931777957,
                            -0.18973061442375184,
                            0.2607329487800598,
                            0.24988731741905213,
                            -0.15640994906425477,
                            -0.2037830650806427,
                            -0.3303737938404083,
                            0.34286049008369448,
                            0.140675887465477,
                            -0.34495702385902407,
                            -0.09444919228553772,
                            0.08743840456008911,
                            0.2829252779483795,
                            -0.013045579195022583,
                            0.12302984297275543,
                            0.2627432644367218
                        ],
                        "array": []
                    },
                    {
                        "data": [
                            0.30572572350502016,
                            0.06587588787078858,
                            -0.2748296558856964,
                            -0.34535279870033266,
                            0.006077945232391357,
                            -0.21957942843437196,
                            0.3040384352207184,
                            -0.25864019989967348,
                            -0.2520197927951813,
                            -0.038806408643722537,
                            -0.09300759434700012,
                            0.09728595614433289,
                            0.014799654483795166,
                            0.1452588438987732,
                            0.013920903205871582,
                            0.18580713868141175,
                            0.06925910711288452,
                            0.21358570456504823,
                            -0.21540358662605287,
                            0.30444344878196719,
                            -0.3350133001804352,
                            -0.14771768450737,
                            0.11955980956554413,
                            0.050493985414505008,
                            0.08800795674324036,
                            -0.19398710131645204,
                            0.25523993372917178,
                            0.12037737667560578
                        ],
                        "array": []
                    },
                    {
                        "data": [
                            0.2646406590938568,
                            -0.18927255272865296,
                            -0.02366212010383606,
                            0.22026194632053376,
                            -0.03371787071228027,
                            -0.1751088798046112,
                            -0.20094034075737,
                            -0.31322237849235537,
                            0.23700252175331117,
                            0.27179238200187685,
                            0.1711210012435913,
                            0.25730371475219729,
                            0.27614596486091616,
                            0.12037838995456696,
                            0.0138092041015625,
                            0.19892241060733796,
                            -0.17906120419502259,
                            -0.21095290780067445,
                            -0.17727342247962953,
                            -0.06348752975463867,
                            0.30521002411842348,
                            -0.08534708619117737,
                            -0.014402300119400025,
                            0.11697013676166535,
                            0.3333927094936371,
                            0.2347526252269745,
                            -0.3085004985332489,
                            0.10844020545482636
                        ],
                        "array": []
                    }
                ]
            },
            {
                "data": [],
                "array": [
                    {
                        "data": [
                            0.5087318420410156,
                            -0.7860865592956543,
                            -0.4925879240036011,
                            0.36336395144462588,
                            0.8940696716308594,
                            0.48456332087516787,
                            0.6965410709381104,
                            0.9574131965637207,
                            0.22237169742584229,
                            -0.5584778785705566,
                            -0.9992127418518066,
                            0.4464986026287079,
                            0.14943301677703858,
                            0.45984432101249697,
                            -0.7777175903320313,
                            -0.8344852924346924
                        ],
                        "array": []
                    },
                    {
                        "data": [
                            -0.31794869899749758,
                            0.19207394123077393,
                            0.6506900787353516,
                            0.4896034896373749,
                            -0.4966179132461548,
                            -0.2519263029098511,
                            -0.027913689613342286,
                            -0.39414656162261965,
                            0.2060757875442505,
                            0.9287278652191162,
                            -0.07649004459381104,
                            0.15075933933258058,
                            0.24336540699005128,
                            0.3706981837749481,
                            -0.702521800994873,
                            -0.2414027452468872
                        ],
                        "array": []
                    }
                ]
            }
        ]
    },
    "m_layerLengths": [
        28,
        16,
        2
    ],
    "m_dataFileName": "NN_1",
    "m_activisionType": 2,
    "m_activisionTypeOutput": 4,
    "m_costType": 0,
    "m_initializationType": 0,
    "m_activisionConstant": 0.009999999776482582
}
