{
    "m_isCorrupted": false,
    "m_trainingData": {
        "m_updateType": 0,
        "m_learnRate": 0.10000000149011612,
        "m_batchSize": 5,
        "m_curveRange": 0,
        "m_curve": {
            "serializedVersion": "2",
            "m_Curve": [
                {
                    "serializedVersion": "3",
                    "time": 0.0,
                    "value": 1.0,
                    "inSlope": 0.0,
                    "outSlope": 0.0,
                    "tangentMode": 0,
                    "weightedMode": 0,
                    "inWeight": 0.0,
                    "outWeight": 0.0
                },
                {
                    "serializedVersion": "3",
                    "time": 0.3051183521747589,
                    "value": 0.7851641178131104,
                    "inSlope": -1.2684203386306763,
                    "outSlope": -1.2684203386306763,
                    "tangentMode": 0,
                    "weightedMode": 0,
                    "inWeight": 0.3333333432674408,
                    "outWeight": 0.3333333432674408
                },
                {
                    "serializedVersion": "3",
                    "time": 1.0,
                    "value": 0.10000000149011612,
                    "inSlope": 0.0,
                    "outSlope": 0.0,
                    "tangentMode": 0,
                    "weightedMode": 0,
                    "inWeight": 0.0,
                    "outWeight": 0.0
                }
            ],
            "m_PreInfinity": 2,
            "m_PostInfinity": 2,
            "m_RotationOrder": 4
        },
        "m_regularizationKeepRate": 0.75,
        "m_weightDecayRate": 0.00009999999747378752,
        "m_trainNetworkOnline": true,
        "m_saveSamplesOnline": true,
        "m_trainingCooldownOnlineMin": 0.0,
        "m_trainingCooldownOnlineMax": 0.0,
        "m_trainNetworkOffline": true,
        "m_trainingUnits": 5,
        "m_trainingCooldownOfflineMin": 0.019999999552965165,
        "m_trainingCooldownOfflineMax": 0.019999999552965165,
        "m_trainingCooldownOfflineGatherMin": 100.0,
        "m_trainingCooldownOfflineGatherMax": 100.0,
        "m_stopAtMaximumUnitCount": 0,
        "m_trainingCooldownRdyOnline": 0.0,
        "m_trainingCooldownRdyOffline": 0.019999999552965165,
        "m_trainingCooldownRdyOfflineGather": 100.0,
        "m_trainingUnitsCompleted": 0
    },
    "m_sampleData": {
        "m_inputType": 0,
        "m_tossNoOutputSamples": true,
        "m_minSamples": 300,
        "m_maxSamples": 1000,
        "m_batchSize": 1,
        "m_screenshotData": {
            "m_captureWidth": 8,
            "m_captureHeight": 12,
            "m_backgroundHeight": 0.0,
            "m_changeObstacleScales": true,
            "m_format": 1,
            "m_allowHDR": false,
            "m_activisionThreshold": 0.10000000149011612
        }
    },
    "m_visuilizationData": {
        "m_visualize": true,
        "m_height": 7.0,
        "m_width": 3.0,
        "m_marginX": 0.25,
        "m_marginY": 0.25,
        "m_orientation": 2,
        "m_nodesScaleFactorGlobal": 0.5,
        "m_weightsScaleFactorGloal": 0.5,
        "m_nodesScaleFactorLayerWise": [
            0.25
        ],
        "m_weightsScaleFactorLayerWise": [
            0.029999999329447748,
            0.25,
            0.25
        ],
        "m_relativePosition": {
            "x": 4.5,
            "y": 1.5,
            "z": 0.0
        },
        "m_relativeRotation": {
            "x": 0.0,
            "y": 0.0,
            "z": 0.0
        }
    },
    "m_networkData": {
        "m_biases": [
            {
                "data": [
                    -0.8785243034362793,
                    0.3518049418926239,
                    -0.7854094505310059,
                    -0.7821276187896729,
                    0.6499285697937012,
                    0.37515947222709658,
                    0.1282581090927124,
                    -0.1604706048965454
                ],
                "array": []
            },
            {
                "data": [
                    -0.7191836833953857,
                    -0.3857463598251343,
                    0.9457707405090332,
                    -0.13921678066253663,
                    0.5862481594085693,
                    0.8500015735626221,
                    -0.575883150100708,
                    0.21315252780914308
                ],
                "array": []
            },
            {
                "data": [
                    0.15327250957489015,
                    -0.7339966297149658
                ],
                "array": []
            }
        ],
        "m_weights": [
            {
                "data": [],
                "array": [
                    {
                        "data": [
                            0.4203379154205322,
                            -0.14195173978805543,
                            0.0046277642250061039,
                            0.3024548292160034,
                            -0.4612816572189331,
                            -0.4958024024963379,
                            0.05671411752700806,
                            -0.29241859912872317,
                            0.23854146897792817,
                            0.20038793981075288,
                            0.018643558025360109,
                            0.2834906578063965,
                            -0.3132956027984619,
                            0.30724847316741946,
                            -0.06064575910568237,
                            -0.4960012435913086,
                            0.21670971810817719,
                            0.23711799085140229,
                            -0.40443193912506106,
                            0.08158284425735474,
                            -0.2791680097579956,
                            -0.038976967334747317,
                            0.02250450849533081,
                            0.05632370710372925,
                            0.33279895782470705,
                            0.21293769776821137,
                            0.312923789024353,
                            -0.3576517105102539,
                            0.22836636006832124,
                            0.40972864627838137,
                            0.358664870262146,
                            0.2720109224319458,
                            -0.14709240198135377,
                            -0.1810116171836853,
                            -0.15352672338485719,
                            0.12085336446762085,
                            -0.026597201824188234,
                            0.24410615861415864,
                            0.23393724858760835,
                            -0.1884416937828064,
                            -0.4050339460372925,
                            -0.47033894062042239,
                            -0.466386079788208,
                            0.19261418282985688,
                            -0.3558981418609619,
                            0.3675203323364258,
                            0.08227616548538208,
                            0.38972997665405276,
                            -0.2657283544540405,
                            -0.25846338272094729,
                            0.07628136873245239,
                            0.41106152534484866,
                            0.04282301664352417,
                            0.29418957233428957,
                            -0.0038587450981140138,
                            -0.294330358505249,
                            0.48358118534088137,
                            0.11322551965713501,
                            -0.08419829607009888,
                            0.3625333309173584,
                            -0.24443072080612184,
                            -0.4296189546585083,
                            0.4933973550796509,
                            -0.13737696409225465,
                            0.15017376840114594,
                            0.4868274927139282,
                            -0.027064383029937745,
                            0.12019389867782593,
                            0.13633368909358979,
                            0.4503117799758911,
                            0.11625844240188599,
                            0.04928320646286011,
                            -0.2071804404258728,
                            0.4467235803604126,
                            0.4407839775085449,
                            -0.27872705459594729,
                            -0.4638577699661255,
                            -0.11723393201828003,
                            0.264833927154541,
                            0.32313430309295657,
                            0.09824317693710327,
                            -0.10608464479446411,
                            -0.22000914812088014,
                            -0.1466631293296814,
                            0.3842419385910034,
                            0.23957227170467378,
                            0.04739600419998169,
                            0.062170445919036868,
                            0.1597219556570053,
                            0.39942824840545657,
                            0.2335735410451889,
                            -0.2348424792289734,
                            0.2651129961013794,
                            -0.29270875453948977,
                            0.43735039234161379,
                            -0.025064527988433839,
                            0.13592062890529633,
                            -0.1670779585838318,
                            0.1761305183172226,
                            0.2053358405828476,
                            0.19209681451320649,
                            -0.27918994426727297,
                            -0.20440393686294557,
                            -0.4139779806137085
                        ],
                        "array": []
                    },
                    {
                        "data": [
                            -0.04338198900222778,
                            0.05644792318344116,
                            0.186446413397789,
                            -0.38361799716949465,
                            -0.093700110912323,
                            -0.04004698991775513,
                            -0.4969576597213745,
                            -0.1725577712059021,
                            0.24480651319026948,
                            -0.20579630136489869,
                            0.1778772920370102,
                            -0.28617167472839358,
                            -0.05173462629318237,
                            0.29732203483581545,
                            0.19795475900173188,
                            -0.010252416133880616,
                            0.08521062135696411,
                            0.13144730031490327,
                            -0.478273868560791,
                            -0.08492952585220337,
                            0.2396145910024643,
                            -0.1509050726890564,
                            -0.44752728939056399,
                            -0.2928595542907715,
                            -0.4672895669937134,
                            0.2886381149291992,
                            -0.16011065244674684,
                            -0.2560030221939087,
                            -0.0024505257606506349,
                            -0.22987574338912965,
                            0.2719043493270874,
                            0.13208793103694917,
                            -0.035138070583343509,
                            -0.1581299901008606,
                            0.3446704149246216,
                            0.15211914479732514,
                            -0.09744375944137573,
                            0.49847710132598879,
                            0.27372825145721438,
                            -0.2266961932182312,
                            -0.17359954118728639,
                            -0.00116807222366333,
                            0.36193740367889407,
                            -0.0730789303779602,
                            0.15673767030239106,
                            0.49578094482421877,
                            -0.20393532514572144,
                            0.3985564708709717,
                            0.43729138374328616,
                            -0.4356381893157959,
                            0.15895698964595796,
                            -0.3199615478515625,
                            -0.38607633113861086,
                            -0.29010725021362307,
                            0.10961383581161499,
                            0.42054831981658938,
                            0.06648820638656616,
                            0.3873645067214966,
                            -0.1255667805671692,
                            0.4866597652435303,
                            0.14451037347316743,
                            0.4877396821975708,
                            -0.35016632080078127,
                            -0.2568080425262451,
                            -0.47349345684051516,
                            -0.13269323110580445,
                            -0.1107683777809143,
                            -0.388918399810791,
                            0.19059275090694428,
                            0.20755206048488618,
                            0.2366182655096054,
                            -0.3693115711212158,
                            0.23484157025814057,
                            -0.3295474052429199,
                            -0.2574270963668823,
                            0.09644430875778198,
                            -0.11559182405471802,
                            -0.11474829912185669,
                            -0.2878826856613159,
                            0.12271171808242798,
                            -0.08750730752944946,
                            -0.3774752616882324,
                            0.18344758450984956,
                            -0.05803185701370239,
                            0.15175090730190278,
                            -0.015401184558868409,
                            -0.3338123559951782,
                            0.34569239616394045,
                            0.35855698585510256,
                            -0.2360265851020813,
                            -0.13909190893173219,
                            -0.36583375930786135,
                            0.024172484874725343,
                            -0.3537299633026123,
                            0.20596908032894135,
                            -0.43443524837493899,
                            -0.1463262438774109,
                            0.3515204191207886,
                            0.4657212495803833,
                            0.03697317838668823,
                            0.21509526669979096,
                            0.012190043926239014,
                            0.012195885181427002,
                            -0.172640860080719
                        ],
                        "array": []
                    },
                    {
                        "data": [
                            -0.24217122793197633,
                            0.21251080930233003,
                            -0.04666560888290405,
                            0.08041828870773316,
                            0.1615891307592392,
                            -0.053547799587249759,
                            0.09220343828201294,
                            0.07961779832839966,
                            -0.06461888551712036,
                            -0.025135338306427003,
                            0.3453124761581421,
                            0.10180503129959107,
                            0.3770332336425781,
                            -0.35144293308258059,
                            -0.3961831331253052,
                            0.38859331607818606,
                            -0.12929338216781617,
                            -0.2645375728607178,
                            0.4473029375076294,
                            -0.1361425518989563,
                            -0.2902355194091797,
                            -0.12924319505691529,
                            0.42622363567352297,
                            -0.3343796730041504,
                            -0.04511827230453491,
                            0.13256381452083589,
                            0.13705120980739594,
                            -0.2518894672393799,
                            -0.15954643487930299,
                            -0.09556204080581665,
                            0.09669691324234009,
                            -0.413740873336792,
                            -0.31264162063598635,
                            -0.2750365734100342,
                            0.10141164064407349,
                            0.4444924592971802,
                            -0.36554157733917239,
                            -0.12120300531387329,
                            0.22600935399532319,
                            -0.012934863567352295,
                            0.20058690011501313,
                            -0.056399405002593997,
                            -0.21502333879470826,
                            0.1519375890493393,
                            -0.47755372524261477,
                            0.1456521600484848,
                            -0.04016202688217163,
                            0.13250480592250825,
                            0.26523661613464358,
                            -0.39139747619628909,
                            -0.15145617723464967,
                            0.33088791370391848,
                            0.37405169010162356,
                            0.14584361016750337,
                            0.22557614743709565,
                            -0.18774563074111939,
                            0.20007286965847016,
                            -0.1700158715248108,
                            0.0870174765586853,
                            -0.37629878520965578,
                            -0.11953920125961304,
                            -0.24589937925338746,
                            0.2962520122528076,
                            -0.1326119303703308,
                            -0.214519202709198,
                            0.04989546537399292,
                            -0.11687272787094116,
                            0.22744439542293549,
                            -0.16105443239212037,
                            -0.2960090637207031,
                            0.34753596782684328,
                            0.16338418424129487,
                            0.22826813161373139,
                            0.447725772857666,
                            -0.3879021406173706,
                            -0.17884880304336549,
                            -0.384513258934021,
                            -0.0929918885231018,
                            -0.4111521244049072,
                            -0.44577598571777346,
                            0.115650475025177,
                            0.16890095174312592,
                            0.11999601125717163,
                            -0.07624131441116333,
                            -0.17681986093521119,
                            -0.4398488998413086,
                            -0.29003381729125979,
                            0.010265886783599854,
                            0.007733523845672607,
                            0.2541348934173584,
                            -0.28082919120788576,
                            0.2827829122543335,
                            -0.006153404712677002,
                            -0.1828938126564026,
                            -0.33092379570007326,
                            0.15744875371456147,
                            0.042193591594696048,
                            -0.06572633981704712,
                            0.09257608652114868,
                            0.17376123368740083,
                            0.01884514093399048,
                            0.1940215677022934,
                            0.3232307434082031,
                            0.46267402172088625
                        ],
                        "array": []
                    },
                    {
                        "data": [
                            -0.30540239810943606,
                            0.08405691385269165,
                            0.019490063190460206,
                            0.20529459416866303,
                            0.1362982839345932,
                            0.32356739044189455,
                            0.30506396293640139,
                            0.19999967515468598,
                            0.0896187424659729,
                            -0.4643656015396118,
                            -0.0607340931892395,
                            -0.03107231855392456,
                            0.29985177516937258,
                            0.06127899885177612,
                            -0.08288592100143433,
                            -0.34401798248291018,
                            0.08330041170120239,
                            0.1595815271139145,
                            -0.4229762554168701,
                            0.16283272206783296,
                            0.2214205116033554,
                            0.49493157863616946,
                            -0.14425045251846314,
                            0.2471616119146347,
                            0.3633861541748047,
                            -0.4243500232696533,
                            -0.18538635969161988,
                            -0.1308031678199768,
                            0.10792750120162964,
                            0.0795239806175232,
                            0.4641379117965698,
                            -0.2640199661254883,
                            -0.3737291097640991,
                            -0.08505409955978394,
                            -0.11921435594558716,
                            0.22219382226467133,
                            0.25505268573760989,
                            0.46869540214538576,
                            0.4627492427825928,
                            0.10419625043869019,
                            0.33365142345428469,
                            -0.30862438678741457,
                            -0.28451859951019289,
                            -0.30245184898376467,
                            0.39493250846862795,
                            0.20611833035945893,
                            -0.2735309600830078,
                            0.23800848424434663,
                            -0.2203879952430725,
                            -0.3767815828323364,
                            0.22124551236629487,
                            -0.31890761852264407,
                            0.0048348307609558109,
                            0.02366262674331665,
                            -0.4555851221084595,
                            -0.4941641092300415,
                            0.08568662405014038,
                            0.43050944805145266,
                            0.35430383682250979,
                            -0.04095584154129028,
                            0.09305733442306519,
                            0.03273862600326538,
                            0.4903615713119507,
                            0.0009000897407531738,
                            0.05105942487716675,
                            0.14720509946346284,
                            -0.33585572242736819,
                            0.2136756032705307,
                            -0.4753427505493164,
                            0.12444084882736206,
                            0.09035676717758179,
                            0.10939794778823853,
                            0.4088900089263916,
                            -0.3399620056152344,
                            -0.028907477855682374,
                            -0.13582009077072144,
                            0.2500495910644531,
                            0.1917468160390854,
                            0.33666932582855227,
                            -0.41134846210479739,
                            -0.0557137131690979,
                            0.3680607080459595,
                            -0.3116041421890259,
                            0.12863169610500337,
                            0.23136578500270844,
                            0.44839203357696535,
                            -0.0012056231498718262,
                            -0.21256905794143678,
                            0.07625430822372437,
                            0.0366479754447937,
                            0.3312464952468872,
                            0.2782261371612549,
                            0.4144778251647949,
                            0.038821637630462649,
                            0.08273249864578247,
                            -0.13828736543655396,
                            -0.17948848009109498,
                            0.11447864770889282,
                            0.41862475872039797,
                            -0.0016390681266784669,
                            -0.4455336332321167,
                            -0.41122281551361086,
                            -0.11777108907699585,
                            0.328533411026001
                        ],
                        "array": []
                    },
                    {
                        "data": [
                            0.38030755519866946,
                            0.24121616780757905,
                            0.4753851890563965,
                            0.3145112991333008,
                            0.3534444570541382,
                            -0.3137470483779907,
                            0.26490747928619387,
                            0.4250328540802002,
                            -0.06966501474380493,
                            -0.16444653272628785,
                            0.08864742517471314,
                            -0.42420339584350588,
                            0.14137183129787446,
                            0.4578338861465454,
                            -0.24864381551742555,
                            0.46249258518218996,
                            -0.016247212886810304,
                            -0.2523467540740967,
                            0.15892444550991059,
                            -0.19422417879104615,
                            -0.05612975358963013,
                            0.19636784493923188,
                            -0.48757970333099368,
                            -0.3839254379272461,
                            -0.43932783603668215,
                            -0.320082426071167,
                            -0.43480730056762698,
                            -0.02724534273147583,
                            -0.4870932102203369,
                            0.3386141061782837,
                            -0.1195189356803894,
                            0.05694693326950073,
                            0.13011537492275239,
                            -0.11232751607894898,
                            0.3071242570877075,
                            0.30746376514434817,
                            -0.4769313335418701,
                            0.4894031286239624,
                            -0.28004300594329836,
                            0.004136502742767334,
                            -0.3340400457382202,
                            0.1273401826620102,
                            -0.482965350151062,
                            -0.4565904140472412,
                            0.49708354473114016,
                            0.266792893409729,
                            0.19120703637599946,
                            -0.2421082854270935,
                            -0.271598219871521,
                            0.07374423742294312,
                            0.04151493310928345,
                            -0.15826302766799928,
                            -0.13454502820968629,
                            -0.05540233850479126,
                            0.23076818883419038,
                            -0.43191957473754885,
                            0.0011529326438903809,
                            -0.38568174839019778,
                            -0.2002769112586975,
                            -0.46691203117370608,
                            0.3575906753540039,
                            -0.14723020792007447,
                            0.22060154378414155,
                            -0.4125860929489136,
                            -0.12013846635818482,
                            -0.2710709571838379,
                            -0.14807802438735963,
                            -0.20211070775985719,
                            0.06659764051437378,
                            0.12367945909500122,
                            0.011863768100738526,
                            0.07388526201248169,
                            0.04083913564682007,
                            -0.3295433521270752,
                            0.05617040395736694,
                            0.3999214172363281,
                            -0.2018924355506897,
                            0.029492318630218507,
                            0.23500345647335053,
                            -0.4830937385559082,
                            -0.20715612173080445,
                            0.038893043994903567,
                            -0.2567932605743408,
                            -0.04942804574966431,
                            0.12872181832790376,
                            0.07430857419967652,
                            -0.15184491872787476,
                            0.1974766105413437,
                            -0.08163541555404663,
                            0.19806896150112153,
                            -0.28026318550109866,
                            -0.2985280752182007,
                            -0.08339053392410279,
                            -0.34298181533813479,
                            0.2546844482421875,
                            -0.3033428192138672,
                            -0.4726684093475342,
                            0.08091264963150025,
                            -0.038472115993499759,
                            0.4677625894546509,
                            0.2114860862493515,
                            0.0751846432685852,
                            -0.0392795205116272,
                            0.1371527761220932
                        ],
                        "array": []
                    },
                    {
                        "data": [
                            -0.11666232347488404,
                            -0.19437819719314576,
                            -0.11659461259841919,
                            0.0966981053352356,
                            -0.30153942108154299,
                            -0.0792894959449768,
                            -0.03818696737289429,
                            0.26087701320648196,
                            -0.3207437992095947,
                            -0.24306517839431764,
                            0.25930631160736086,
                            0.48305225372314455,
                            0.13148890435695649,
                            -0.2345605492591858,
                            -0.26044344902038576,
                            -0.20310145616531373,
                            0.364284873008728,
                            0.4724506139755249,
                            0.4045746326446533,
                            -0.1776297688484192,
                            0.01977318525314331,
                            -0.279133677482605,
                            0.35936999320983889,
                            -0.035664379596710208,
                            0.4880385398864746,
                            0.3613767623901367,
                            -0.27723515033721926,
                            0.35155558586120608,
                            0.40226423740386965,
                            -0.3164459466934204,
                            0.2972930669784546,
                            -0.06741386651992798,
                            -0.1170077919960022,
                            0.34021854400634768,
                            -0.2299630045890808,
                            0.3267914056777954,
                            0.12708960473537446,
                            -0.35599637031555178,
                            0.4201185703277588,
                            -0.13525575399398805,
                            -0.19688624143600465,
                            0.2577521800994873,
                            0.4646303653717041,
                            -0.03066176176071167,
                            0.1874013990163803,
                            0.44707047939300539,
                            0.4174712896347046,
                            0.011031925678253174,
                            -0.35090339183807375,
                            -0.39195454120635989,
                            0.3997751474380493,
                            -0.021544158458709718,
                            -0.07559412717819214,
                            0.38891756534576418,
                            -0.08656948804855347,
                            -0.20897871255874635,
                            -0.06443971395492554,
                            0.25623011589050295,
                            -0.17965704202651978,
                            0.4648793935775757,
                            -0.2620217800140381,
                            -0.37075912952423098,
                            0.18958161771297456,
                            -0.13318604230880738,
                            0.4584871530532837,
                            -0.00141221284866333,
                            0.28417789936065676,
                            0.054782211780548099,
                            -0.4138758182525635,
                            0.21220122277736665,
                            0.22234486043453217,
                            -0.3246443271636963,
                            -0.3503948450088501,
                            0.23685167729854585,
                            0.18442128598690034,
                            0.3673626184463501,
                            0.28197240829467776,
                            -0.13178080320358277,
                            -0.4236428737640381,
                            -0.3090862035751343,
                            0.2572591304779053,
                            -0.21003609895706178,
                            0.3046454191207886,
                            -0.2183571457862854,
                            0.33595335483551028,
                            -0.18738144636154176,
                            0.16459856927394868,
                            0.09096413850784302,
                            0.011338770389556885,
                            -0.49013304710388186,
                            -0.18745368719100953,
                            -0.2500033378601074,
                            -0.18559080362319947,
                            -0.1292518973350525,
                            -0.14550262689590455,
                            -0.3917577266693115,
                            0.0414387583732605,
                            0.48279130458831789,
                            0.16605018079280854,
                            0.1159864068031311,
                            0.4123309850692749,
                            -0.38409650325775149,
                            0.42040491104125979,
                            0.03293496370315552
                        ],
                        "array": []
                    },
                    {
                        "data": [
                            0.3877674341201782,
                            -0.27986085414886477,
                            -0.21108752489089967,
                            0.24260805547237397,
                            0.3530395030975342,
                            0.3497142791748047,
                            -0.34068071842193606,
                            0.4450784921646118,
                            -0.4136446714401245,
                            -0.2553306818008423,
                            -0.3979063034057617,
                            -0.15297096967697144,
                            0.14902363717556,
                            -0.259036660194397,
                            0.3795050382614136,
                            0.4961355924606323,
                            -0.12568646669387818,
                            -0.23029333353042603,
                            0.43841004371643069,
                            -0.034403979778289798,
                            0.4340008497238159,
                            -0.37115705013275149,
                            -0.39887094497680666,
                            0.14190350472927094,
                            -0.24549263715744019,
                            0.308060884475708,
                            -0.09823423624038696,
                            -0.13318020105361939,
                            0.3229771852493286,
                            -0.4377530813217163,
                            0.18076620995998383,
                            -0.4891875982284546,
                            0.39409422874450686,
                            0.2502211332321167,
                            -0.4316408634185791,
                            0.3409576416015625,
                            0.2250368446111679,
                            0.42935431003570559,
                            -0.3567490577697754,
                            -0.23987072706222535,
                            -0.459240198135376,
                            0.38853180408477785,
                            0.11906951665878296,
                            0.11551529169082642,
                            -0.22528225183486939,
                            0.15613983571529389,
                            0.024564802646636964,
                            -0.4466664791107178,
                            -0.3505946397781372,
                            -0.4471029043197632,
                            0.3994091749191284,
                            -0.33693528175354006,
                            0.13675449788570405,
                            0.22906862199306489,
                            0.12422126531600952,
                            0.46980154514312746,
                            0.4432944059371948,
                            -0.1301371455192566,
                            0.023544013500213624,
                            0.49542295932769778,
                            0.020980775356292726,
                            0.23929761350154878,
                            0.4533853530883789,
                            -0.30151355266571047,
                            -0.17497283220291139,
                            -0.29215681552886965,
                            -0.29230785369873049,
                            -0.17057639360427857,
                            -0.06463998556137085,
                            0.2588702440261841,
                            0.3775748014450073,
                            0.03493601083755493,
                            0.48146235942840578,
                            0.28684771060943606,
                            0.4242284297943115,
                            0.24522267282009126,
                            -0.47766613960266116,
                            0.22479568421840669,
                            -0.3361513614654541,
                            0.2881122827529907,
                            0.04585200548171997,
                            -0.20987588167190553,
                            0.355411171913147,
                            -0.2458311915397644,
                            0.106975257396698,
                            -0.1332339644432068,
                            -0.04341500997543335,
                            -0.31407713890075686,
                            -0.16178852319717408,
                            -0.2104373574256897,
                            -0.4350012540817261,
                            0.04672163724899292,
                            -0.2675105333328247,
                            0.2499285787343979,
                            0.08344990015029907,
                            -0.25337111949920657,
                            -0.10595506429672241,
                            0.16006337106227876,
                            -0.4881998300552368,
                            -0.3726792335510254,
                            0.36408352851867678,
                            0.42115163803100588,
                            -0.41607630252838137,
                            -0.26637399196624758
                        ],
                        "array": []
                    },
                    {
                        "data": [
                            0.4731534719467163,
                            0.29314160346984866,
                            -0.2471056580543518,
                            0.282464861869812,
                            -0.13607031106948853,
                            -0.08951646089553833,
                            -0.23650628328323365,
                            0.4472470283508301,
                            -0.2671612501144409,
                            -0.26578640937805178,
                            0.29982495307922366,
                            -0.17735785245895387,
                            0.13017188012599946,
                            0.38411641120910647,
                            -0.14852505922317506,
                            0.35355687141418459,
                            -0.04120415449142456,
                            -0.06260567903518677,
                            -0.4113011360168457,
                            -0.35749125480651858,
                            0.34346258640289309,
                            0.42598772048950198,
                            0.4720054864883423,
                            0.2884526252746582,
                            -0.25446200370788576,
                            0.240204319357872,
                            0.3989288806915283,
                            0.13271616399288178,
                            0.4861123561859131,
                            -0.43181025981903078,
                            0.01637345552444458,
                            0.42151200771331789,
                            0.2852667570114136,
                            0.40581977367401125,
                            0.16692756116390229,
                            -0.264331579208374,
                            0.2164587825536728,
                            0.35629475116729739,
                            -0.43020081520080569,
                            0.24633990228176118,
                            -0.18667083978652955,
                            0.3566707372665405,
                            -0.30988967418670657,
                            -0.22759181261062623,
                            0.011361896991729737,
                            0.18797741830348969,
                            -0.4358525276184082,
                            0.10242003202438355,
                            -0.09012633562088013,
                            -0.37931549549102785,
                            0.1532527059316635,
                            -0.04766744375228882,
                            -0.13367325067520142,
                            0.2903639078140259,
                            -0.341048002243042,
                            0.046280086040496829,
                            -0.46950364112854006,
                            0.08848661184310913,
                            -0.21452385187149049,
                            0.3738267421722412,
                            0.45692622661590578,
                            -0.028376281261444093,
                            -0.28151094913482668,
                            0.19052647054195405,
                            -0.1881154179573059,
                            -0.158733069896698,
                            -0.19190067052841187,
                            -0.07329565286636353,
                            -0.48274898529052737,
                            -0.10653454065322876,
                            0.11811274290084839,
                            0.40423858165740969,
                            0.06632453203201294,
                            0.34712541103363039,
                            0.2643594741821289,
                            0.10053497552871704,
                            -0.39837777614593508,
                            -0.18616586923599244,
                            -0.2726120948791504,
                            -0.4585893154144287,
                            0.10121840238571167,
                            0.3015427589416504,
                            -0.08035093545913696,
                            -0.20671266317367555,
                            -0.05996817350387573,
                            0.2646644115447998,
                            -0.2871439456939697,
                            0.3227788209915161,
                            0.1884516328573227,
                            -0.3270474672317505,
                            0.38733041286468508,
                            -0.47125208377838137,
                            -0.1604340672492981,
                            0.4113297462463379,
                            0.013132631778717041,
                            0.20686708390712739,
                            0.26282811164855959,
                            -0.14973264932632447,
                            0.19876383244991303,
                            -0.18835073709487916,
                            0.35364270210266116,
                            -0.4573019742965698,
                            0.1874018758535385,
                            0.18666158616542817
                        ],
                        "array": []
                    }
                ]
            },
            {
                "data": [],
                "array": [
                    {
                        "data": [
                            0.005588352680206299,
                            -0.3834038972854614,
                            0.2106778472661972,
                            0.09210246801376343,
                            -0.11757797002792359,
                            0.195670947432518,
                            0.4918099641799927,
                            0.06362265348434448
                        ],
                        "array": []
                    },
                    {
                        "data": [
                            -0.3216056823730469,
                            -0.1743449568748474,
                            -0.4356154203414917,
                            -0.0066620707511901859,
                            0.23273180425167085,
                            -0.33011388778686526,
                            -0.2112782597541809,
                            -0.4980238676071167
                        ],
                        "array": []
                    },
                    {
                        "data": [
                            0.41149187088012698,
                            -0.07968705892562866,
                            0.06728655099868775,
                            -0.23183447122573853,
                            -0.03690379858016968,
                            0.3926907777786255,
                            0.1535928100347519,
                            0.2280355542898178
                        ],
                        "array": []
                    },
                    {
                        "data": [
                            -0.27322936058044436,
                            0.3607757091522217,
                            0.30020177364349368,
                            0.2867753505706787,
                            0.2267058938741684,
                            0.08639317750930786,
                            -0.398870587348938,
                            0.01872175931930542
                        ],
                        "array": []
                    },
                    {
                        "data": [
                            0.3055535554885864,
                            -0.23631340265274049,
                            -0.12661761045455934,
                            -0.026415765285491945,
                            -0.09298652410507202,
                            0.17376409471035005,
                            -0.3556596040725708,
                            -0.4850735664367676
                        ],
                        "array": []
                    },
                    {
                        "data": [
                            0.321980357170105,
                            -0.3356238603591919,
                            -0.36069154739379885,
                            0.028291285037994386,
                            0.174225315451622,
                            0.4700312614440918,
                            0.21649883687496186,
                            0.45254385471343996
                        ],
                        "array": []
                    },
                    {
                        "data": [
                            -0.05045384168624878,
                            0.08088499307632446,
                            0.09634345769882202,
                            -0.08151084184646607,
                            0.029185831546783448,
                            -0.26199042797088625,
                            0.35156571865081789,
                            0.26438963413238528
                        ],
                        "array": []
                    },
                    {
                        "data": [
                            0.20458601415157319,
                            0.0986449122428894,
                            -0.3584707975387573,
                            -0.15863901376724244,
                            -0.13402396440505982,
                            0.031782448291778567,
                            0.19438670575618745,
                            -0.08715683221817017
                        ],
                        "array": []
                    }
                ]
            },
            {
                "data": [],
                "array": [
                    {
                        "data": [
                            -0.62331223487854,
                            0.5675089359283447,
                            -0.9033710956573486,
                            0.7312297821044922,
                            -0.7315232753753662,
                            -0.7727398872375488,
                            -0.029459834098815919,
                            -0.38355839252471926
                        ],
                        "array": []
                    },
                    {
                        "data": [
                            -0.7116329669952393,
                            -0.986985445022583,
                            0.3786024749279022,
                            -0.20509207248687745,
                            -0.27674400806427,
                            0.9905109405517578,
                            0.20128858089447022,
                            -0.12727224826812745
                        ],
                        "array": []
                    }
                ]
            }
        ]
    },
    "m_layerLengths": [
        104,
        8,
        8,
        2
    ],
    "m_dataFileName": "NN_2",
    "m_activisionType": 2,
    "m_activisionTypeOutput": 4,
    "m_costType": 0,
    "m_initializationType": 0,
    "m_activisionConstant": 0.009999999776482582
}
