{
    "m_isCorrupted": false,
    "m_trainingData": {
        "m_updateType": 0,
        "m_learnRate": 0.5,
        "m_batchSize": 10,
        "m_curveRange": 0,
        "m_curve": {
            "serializedVersion": "2",
            "m_Curve": [
                {
                    "serializedVersion": "3",
                    "time": 0.0,
                    "value": 1.0,
                    "inSlope": 0.0,
                    "outSlope": 0.0,
                    "tangentMode": 0,
                    "weightedMode": 0,
                    "inWeight": 0.0,
                    "outWeight": 0.0
                },
                {
                    "serializedVersion": "3",
                    "time": 0.3051183521747589,
                    "value": 0.7851641178131104,
                    "inSlope": -1.2684203386306763,
                    "outSlope": -1.2684203386306763,
                    "tangentMode": 0,
                    "weightedMode": 0,
                    "inWeight": 0.3333333432674408,
                    "outWeight": 0.3333333432674408
                },
                {
                    "serializedVersion": "3",
                    "time": 1.0,
                    "value": 0.5,
                    "inSlope": 0.0,
                    "outSlope": 0.0,
                    "tangentMode": 0,
                    "weightedMode": 0,
                    "inWeight": 0.0,
                    "outWeight": 0.0
                }
            ],
            "m_PreInfinity": 2,
            "m_PostInfinity": 2,
            "m_RotationOrder": 4
        },
        "m_regularizationKeepRate": 1.0,
        "m_weightDecayRate": 0.0010000000474974514,
        "m_trainNetworkOnline": true,
        "m_saveSamplesOnline": true,
        "m_trainingCooldownOnlineMin": 0.0,
        "m_trainingCooldownOnlineMax": 0.0,
        "m_trainNetworkOffline": true,
        "m_trainingUnits": 50,
        "m_trainingCooldownOfflineMin": 0.019999999552965165,
        "m_trainingCooldownOfflineMax": 0.019999999552965165,
        "m_trainingCooldownOfflineGatherMin": 0.0,
        "m_trainingCooldownOfflineGatherMax": 0.0,
        "m_stopAtMaximumUnitCount": 0,
        "m_trainingCooldownRdyOnline": 0.0,
        "m_trainingCooldownRdyOffline": 0.019999999552965165,
        "m_trainingCooldownRdyOfflineGather": 0.0,
        "m_trainingUnitssCompleted": 0
    },
    "m_sampleData": {
        "m_inputType": 0,
        "m_tossNoOutputSamples": true,
        "m_minSamples": 100,
        "m_maxSamples": 500,
        "m_batchSize": 1,
        "m_screenshotData": {
            "m_captureWidth": 0,
            "m_captureHeight": 0,
            "m_backgroundHeight": 0.0,
            "m_changeObstacleScales": true,
            "m_format": 1,
            "m_allowHDR": false,
            "m_activisionThreshold": 0.10000000149011612
        }
    },
    "m_visuilizationData": {
        "m_visualize": false,
        "m_height": 7.0,
        "m_width": 3.0,
        "m_marginX": 0.25,
        "m_marginY": 0.25,
        "m_orientation": 2,
        "m_nodesScaleFactorGlobal": 0.5,
        "m_weightsScaleFactorGloal": 0.5,
        "m_nodesScaleFactorLayerWise": [
            0.25
        ],
        "m_weightsScaleFactorLayerWise": [
            0.10000000149011612
        ],
        "m_relativePosition": {
            "x": 4.5,
            "y": 1.5,
            "z": 0.0
        },
        "m_relativeRotation": {
            "x": 0.0,
            "y": 0.0,
            "z": 0.0
        }
    },
    "m_networkData": {
        "m_biases": [
            {
                "data": [
                    0.2100738286972046,
                    -0.9495511054992676
                ],
                "array": []
            }
        ],
        "m_weights": [
            {
                "data": [],
                "array": [
                    {
                        "data": [
                            0.9723641872406006,
                            -0.7653255462646484,
                            -0.6410794258117676,
                            -0.2827111482620239,
                            0.9895250797271729,
                            0.48771020770072939,
                            -0.7429280281066895,
                            0.3136303126811981,
                            0.02363908290863037,
                            0.655224084854126,
                            0.04559123516082764,
                            -0.28878819942474368,
                            -0.05877053737640381,
                            0.6212630271911621,
                            0.06424224376678467,
                            -0.36756932735443118,
                            0.3947248160839081,
                            -0.5957126617431641,
                            -0.4885932207107544,
                            0.4660663306713104,
                            -0.3574877977371216,
                            0.24129831790924073,
                            0.6828160285949707,
                            -0.15333926677703858,
                            0.41687700152397158,
                            -0.5241587162017822,
                            -0.5838887691497803,
                            0.6291797161102295,
                            -0.2857125997543335,
                            0.42278382182121279,
                            0.36934468150138857,
                            -0.3682926893234253,
                            0.09804975986480713,
                            0.538442850112915,
                            0.38646695017814639,
                            -0.4653409719467163,
                            0.7356829643249512,
                            -0.2112973928451538,
                            -0.92702317237854,
                            0.01969468593597412,
                            -0.7898745536804199,
                            -0.5438222885131836,
                            -0.24325835704803468,
                            0.5942466259002686,
                            -0.6643693447113037,
                            -0.938474178314209,
                            0.09345805644989014,
                            0.35657569766044619,
                            0.25993844866752627,
                            -0.11564552783966065,
                            0.9103641510009766,
                            0.23096072673797608,
                            -0.8117544651031494,
                            0.26462265849113467,
                            0.37305518984794619,
                            0.6293909549713135,
                            -0.3973900079727173,
                            0.5118405818939209,
                            -0.9618360996246338,
                            -0.29092228412628176,
                            -0.25729238986968996,
                            -0.15844523906707765,
                            0.6500186920166016,
                            -0.5547325611114502,
                            -0.5995783805847168,
                            -0.9081950187683106,
                            0.44381043314933779,
                            -0.016987919807434083,
                            0.6228013038635254,
                            -0.8090324401855469,
                            -0.13801324367523194,
                            -0.8607594966888428,
                            0.7789721488952637,
                            0.16754066944122315,
                            0.47932884097099306,
                            0.42278262972831728,
                            -0.24117720127105714,
                            0.38797590136528017,
                            0.4424428641796112,
                            -0.31977665424346926,
                            0.34795400500297549,
                            0.07354772090911865,
                            0.5851321220397949,
                            -0.6530606746673584,
                            0.46934911608695986,
                            0.7934191226959229,
                            -0.16053807735443116,
                            -0.22459352016448975,
                            0.6434695720672607,
                            0.2294100522994995,
                            0.36011478304862978,
                            -0.6640317440032959,
                            0.842937707901001,
                            0.5205976963043213,
                            0.3370060622692108,
                            -0.46069586277008059,
                            0.4144603908061981,
                            -0.4622913599014282,
                            0.19819128513336183,
                            -0.6214613914489746,
                            0.11699974536895752,
                            0.24870383739471436,
                            0.48679181933403017,
                            0.5084667205810547
                        ],
                        "array": []
                    },
                    {
                        "data": [
                            0.5571587085723877,
                            0.8960626125335693,
                            -0.08842432498931885,
                            -0.08112227916717529,
                            -0.6680755615234375,
                            0.9921786785125732,
                            -0.5515832901000977,
                            -0.9433817863464356,
                            0.09881103038787842,
                            0.702934741973877,
                            -0.2391725778579712,
                            -0.19729387760162354,
                            -0.7019021511077881,
                            -0.6344430446624756,
                            -0.6362266540527344,
                            -0.9760563373565674,
                            -0.6110246181488037,
                            -0.43834078311920168,
                            0.13156187534332276,
                            0.3892764747142792,
                            0.342879980802536,
                            -0.8210182189941406,
                            -0.694591760635376,
                            0.4900009334087372,
                            -0.8965342044830322,
                            -0.12736976146697999,
                            -0.3594585657119751,
                            0.9062051773071289,
                            -0.39102089405059817,
                            0.6740736961364746,
                            -0.27324092388153078,
                            0.2964436709880829,
                            -0.5086019039154053,
                            -0.2782944440841675,
                            0.3573736846446991,
                            -0.7450833320617676,
                            -0.7545888423919678,
                            0.1612766981124878,
                            -0.9201223850250244,
                            -0.6541333198547363,
                            0.4871232211589813,
                            -0.4935542345046997,
                            0.9647970199584961,
                            0.46751782298088076,
                            0.5283606052398682,
                            0.43051382899284365,
                            0.41235587000846865,
                            0.9608292579650879,
                            0.3606514632701874,
                            -0.33779704570770266,
                            -0.7464678287506104,
                            0.0003141164779663086,
                            0.7766380310058594,
                            -0.13830196857452393,
                            -0.5673332214355469,
                            0.46016618609428408,
                            0.6943063735961914,
                            0.439989298582077,
                            0.5096333026885986,
                            -0.5103874206542969,
                            0.44786855578422549,
                            -0.49542319774627688,
                            -0.7975831031799316,
                            0.3999800384044647,
                            0.5423967838287354,
                            -0.048134446144104007,
                            0.962249755859375,
                            0.24607932567596436,
                            0.13688552379608155,
                            -0.41201508045196535,
                            -0.546048641204834,
                            0.7813212871551514,
                            -0.5884051322937012,
                            0.593766450881958,
                            0.6426718235015869,
                            0.16560208797454835,
                            0.061623215675354007,
                            -0.01208651065826416,
                            0.0802079439163208,
                            -0.5480597019195557,
                            0.6916658878326416,
                            0.4505011737346649,
                            -0.8879785537719727,
                            0.5711805820465088,
                            -0.8350279331207275,
                            -0.590700626373291,
                            0.8069586753845215,
                            0.31900283694267275,
                            0.17403185367584229,
                            0.463497132062912,
                            0.9512014389038086,
                            -0.8147537708282471,
                            -0.1704787015914917,
                            0.9975013732910156,
                            -0.35879409313201907,
                            -0.5465607643127441,
                            0.5167133808135986,
                            0.3509978950023651,
                            0.44799038767814639,
                            0.011165738105773926,
                            -0.5946249961853027,
                            -0.8816263675689697,
                            0.020672917366027833,
                            -0.09206068515777588
                        ],
                        "array": []
                    }
                ]
            }
        ]
    },
    "m_layerLengths": [
        104,
        2
    ],
    "m_dataFileName": "NN_3",
    "m_activisionType": 2,
    "m_activisionTypeOutput": 4,
    "m_costType": 0,
    "m_initializationType": 0,
    "m_activisionConstant": 1.0
}
